digraph Tree {
node [shape=box, style="filled, rounded", color="black", fontname="helvetica"] ;
edge [fontname="helvetica"] ;
0 [label=<X2 &le; 1.515<br/>squared_error = 0.465<br/>samples = 80000<br/>value = [[1.507]<br/>[1.492]<br/>[0.075]<br/>[-0.057]]>, fillcolor="#ffffff"] ;
1 [label=<X1 &le; 1.184<br/>squared_error = 0.299<br/>samples = 40626<br/>value = [[1.182]<br/>[0.757]<br/>[0.087]<br/>[-0.041]]>, fillcolor="#f5d1b7"] ;
0 -> 1 [labeldistance=2.5, labelangle=45, headlabel="True"] ;
2 [label=<X4 &le; 0.004<br/>squared_error = 0.206<br/>samples = 20559<br/>value = [[0.616]<br/>[0.674]<br/>[0.084]<br/>[-0.04]]>, fillcolor="#f0b78e"] ;
1 -> 2 ;
3 [label=<X3 &le; 0.024<br/>squared_error = 0.157<br/>samples = 10485<br/>value = [[0.615]<br/>[0.632]<br/>[0.076]<br/>[-0.479]]>, fillcolor="#eda978"] ;
2 -> 3 ;
4 [label=<X2 &le; 0.721<br/>squared_error = 0.108<br/>samples = 5490<br/>value = [[0.575]<br/>[0.636]<br/>[-0.348]<br/>[-0.484]]>, fillcolor="#eb9c63"] ;
3 -> 4 ;
5 [label=<X1 &le; 0.578<br/>squared_error = 0.074<br/>samples = 3025<br/>value = [[0.557]<br/>[0.32]<br/>[-0.334]<br/>[-0.456]]>, fillcolor="#e99254"] ;
4 -> 5 ;
6 [label=<X3 &le; -0.492<br/>squared_error = 0.052<br/>samples = 1474<br/>value = [[0.252]<br/>[0.323]<br/>[-0.34]<br/>[-0.456]]>, fillcolor="#e78c4b"] ;
5 -> 6 ;
7 [label=<X4 &le; -0.521<br/>squared_error = 0.04<br/>samples = 781<br/>value = [[0.24]<br/>[0.32]<br/>[-0.554]<br/>[-0.457]]>, fillcolor="#e78945"] ;
6 -> 7 ;
8 [label=<X2 &le; 0.365<br/>squared_error = 0.027<br/>samples = 369<br/>value = [[0.238]<br/>[0.288]<br/>[-0.553]<br/>[-0.694]]>, fillcolor="#e68540"] ;
7 -> 8 ;
9 [label=<squared_error = 0.019<br/>samples = 187<br/>value = [[0.233]<br/>[0.102]<br/>[-0.55]<br/>[-0.699]]>, fillcolor="#e5833c"] ;
8 -> 9 ;
10 [label=<squared_error = 0.018<br/>samples = 182<br/>value = [[0.243]<br/>[0.478]<br/>[-0.557]<br/>[-0.689]]>, fillcolor="#e5833c"] ;
8 -> 10 ;
11 [label=<X2 &le; 0.363<br/>squared_error = 0.027<br/>samples = 412<br/>value = [[0.242]<br/>[0.348]<br/>[-0.555]<br/>[-0.244]]>, fillcolor="#e68540"] ;
7 -> 11 ;
12 [label=<squared_error = 0.018<br/>samples = 197<br/>value = [[0.218]<br/>[0.16]<br/>[-0.556]<br/>[-0.245]]>, fillcolor="#e5833c"] ;
11 -> 12 ;
13 [label=<X1 &le; 0.326<br/>squared_error = 0.019<br/>samples = 215<br/>value = [[0.264]<br/>[0.521]<br/>[-0.553]<br/>[-0.243]]>, fillcolor="#e5833c"] ;
11 -> 13 ;
14 [label=<squared_error = 0.015<br/>samples = 106<br/>value = [[0.117]<br/>[0.515]<br/>[-0.547]<br/>[-0.256]]>, fillcolor="#e5823a"] ;
13 -> 14 ;
15 [label=<squared_error = 0.013<br/>samples = 109<br/>value = [[0.406]<br/>[0.526]<br/>[-0.558]<br/>[-0.231]]>, fillcolor="#e5813a"] ;
13 -> 15 ;
16 [label=<X4 &le; -0.501<br/>squared_error = 0.038<br/>samples = 693<br/>value = [[0.266]<br/>[0.326]<br/>[-0.098]<br/>[-0.455]]>, fillcolor="#e78945"] ;
6 -> 16 ;
17 [label=<X2 &le; 0.366<br/>squared_error = 0.026<br/>samples = 352<br/>value = [[0.267]<br/>[0.304]<br/>[-0.097]<br/>[-0.674]]>, fillcolor="#e6853f"] ;
16 -> 17 ;
18 [label=<squared_error = 0.018<br/>samples = 167<br/>value = [[0.251]<br/>[0.108]<br/>[-0.094]<br/>[-0.685]]>, fillcolor="#e5833c"] ;
17 -> 18 ;
19 [label=<squared_error = 0.017<br/>samples = 185<br/>value = [[0.281]<br/>[0.481]<br/>[-0.099]<br/>[-0.664]]>, fillcolor="#e5833b"] ;
17 -> 19 ;
20 [label=<X2 &le; 0.368<br/>squared_error = 0.026<br/>samples = 341<br/>value = [[0.265]<br/>[0.349]<br/>[-0.1]<br/>[-0.229]]>, fillcolor="#e6853f"] ;
16 -> 20 ;
21 [label=<squared_error = 0.017<br/>samples = 166<br/>value = [[0.248]<br/>[0.164]<br/>[-0.092]<br/>[-0.23]]>, fillcolor="#e5833c"] ;
20 -> 21 ;
22 [label=<squared_error = 0.018<br/>samples = 175<br/>value = [[0.282]<br/>[0.525]<br/>[-0.108]<br/>[-0.227]]>, fillcolor="#e5833c"] ;
20 -> 22 ;
23 [label=<X4 &le; -0.498<br/>squared_error = 0.052<br/>samples = 1551<br/>value = [[0.847]<br/>[0.317]<br/>[-0.329]<br/>[-0.457]]>, fillcolor="#e78c4b"] ;
5 -> 23 ;
24 [label=<X3 &le; -0.48<br/>squared_error = 0.04<br/>samples = 774<br/>value = [[0.846]<br/>[0.292]<br/>[-0.339]<br/>[-0.682]]>, fillcolor="#e78946"] ;
23 -> 24 ;
25 [label=<X2 &le; 0.35<br/>squared_error = 0.027<br/>samples = 407<br/>value = [[0.818]<br/>[0.289]<br/>[-0.552]<br/>[-0.69]]>, fillcolor="#e68540"] ;
24 -> 25 ;
26 [label=<X1 &le; 0.854<br/>squared_error = 0.019<br/>samples = 207<br/>value = [[0.81]<br/>[0.11]<br/>[-0.545]<br/>[-0.697]]>, fillcolor="#e5833c"] ;
25 -> 26 ;
27 [label=<squared_error = 0.013<br/>samples = 101<br/>value = [[0.656]<br/>[0.1]<br/>[-0.554]<br/>[-0.709]]>, fillcolor="#e5823a"] ;
26 -> 27 ;
28 [label=<squared_error = 0.013<br/>samples = 106<br/>value = [[0.957]<br/>[0.119]<br/>[-0.536]<br/>[-0.686]]>, fillcolor="#e5823a"] ;
26 -> 28 ;
29 [label=<X1 &le; 0.858<br/>squared_error = 0.019<br/>samples = 200<br/>value = [[0.825]<br/>[0.475]<br/>[-0.558]<br/>[-0.682]]>, fillcolor="#e5833c"] ;
25 -> 29 ;
30 [label=<squared_error = 0.012<br/>samples = 100<br/>value = [[0.668]<br/>[0.466]<br/>[-0.552]<br/>[-0.691]]>, fillcolor="#e58139"] ;
29 -> 30 ;
31 [label=<squared_error = 0.013<br/>samples = 100<br/>value = [[0.983]<br/>[0.483]<br/>[-0.564]<br/>[-0.672]]>, fillcolor="#e5813a"] ;
29 -> 31 ;
32 [label=<X2 &le; 0.36<br/>squared_error = 0.027<br/>samples = 367<br/>value = [[0.877]<br/>[0.296]<br/>[-0.102]<br/>[-0.675]]>, fillcolor="#e68540"] ;
24 -> 32 ;
33 [label=<squared_error = 0.019<br/>samples = 187<br/>value = [[0.869]<br/>[0.113]<br/>[-0.1]<br/>[-0.663]]>, fillcolor="#e5833c"] ;
32 -> 33 ;
34 [label=<squared_error = 0.018<br/>samples = 180<br/>value = [[0.886]<br/>[0.486]<br/>[-0.105]<br/>[-0.687]]>, fillcolor="#e5833c"] ;
32 -> 34 ;
35 [label=<X3 &le; -0.501<br/>squared_error = 0.039<br/>samples = 777<br/>value = [[0.848]<br/>[0.342]<br/>[-0.32]<br/>[-0.232]]>, fillcolor="#e78945"] ;
23 -> 35 ;
36 [label=<X2 &le; 0.382<br/>squared_error = 0.025<br/>samples = 365<br/>value = [[0.83]<br/>[0.351]<br/>[-0.555]<br/>[-0.227]]>, fillcolor="#e6853f"] ;
35 -> 36 ;
37 [label=<squared_error = 0.017<br/>samples = 182<br/>value = [[0.807]<br/>[0.179]<br/>[-0.563]<br/>[-0.225]]>, fillcolor="#e5833c"] ;
36 -> 37 ;
38 [label=<squared_error = 0.018<br/>samples = 183<br/>value = [[0.853]<br/>[0.522]<br/>[-0.546]<br/>[-0.228]]>, fillcolor="#e5833c"] ;
36 -> 38 ;
39 [label=<X2 &le; 0.362<br/>squared_error = 0.028<br/>samples = 412<br/>value = [[0.864]<br/>[0.335]<br/>[-0.111]<br/>[-0.236]]>, fillcolor="#e68640"] ;
35 -> 39 ;
40 [label=<X1 &le; 0.87<br/>squared_error = 0.02<br/>samples = 206<br/>value = [[0.872]<br/>[0.151]<br/>[-0.11]<br/>[-0.247]]>, fillcolor="#e5833d"] ;
39 -> 40 ;
41 [label=<squared_error = 0.014<br/>samples = 102<br/>value = [[0.719]<br/>[0.143]<br/>[-0.115]<br/>[-0.247]]>, fillcolor="#e5823a"] ;
40 -> 41 ;
42 [label=<squared_error = 0.015<br/>samples = 104<br/>value = [[1.022]<br/>[0.158]<br/>[-0.105]<br/>[-0.247]]>, fillcolor="#e5823a"] ;
40 -> 42 ;
43 [label=<X1 &le; 0.876<br/>squared_error = 0.018<br/>samples = 206<br/>value = [[0.857]<br/>[0.519]<br/>[-0.113]<br/>[-0.226]]>, fillcolor="#e5833c"] ;
39 -> 43 ;
44 [label=<squared_error = 0.012<br/>samples = 105<br/>value = [[0.707]<br/>[0.521]<br/>[-0.112]<br/>[-0.23]]>, fillcolor="#e58139"] ;
43 -> 44 ;
45 [label=<squared_error = 0.012<br/>samples = 101<br/>value = [[1.012]<br/>[0.518]<br/>[-0.114]<br/>[-0.223]]>, fillcolor="#e58139"] ;
43 -> 45 ;
46 [label=<X1 &le; 0.622<br/>squared_error = 0.08<br/>samples = 2465<br/>value = [[0.597]<br/>[1.024]<br/>[-0.366]<br/>[-0.519]]>, fillcolor="#e99457"] ;
4 -> 46 ;
47 [label=<X3 &le; -0.468<br/>squared_error = 0.057<br/>samples = 1182<br/>value = [[0.272]<br/>[1.005]<br/>[-0.367]<br/>[-0.519]]>, fillcolor="#e88e4d"] ;
46 -> 47 ;
48 [label=<X4 &le; -0.443<br/>squared_error = 0.044<br/>samples = 602<br/>value = [[0.245]<br/>[1.01]<br/>[-0.59]<br/>[-0.526]]>, fillcolor="#e78a47"] ;
47 -> 48 ;
49 [label=<X2 &le; 1.104<br/>squared_error = 0.032<br/>samples = 360<br/>value = [[0.238]<br/>[0.999]<br/>[-0.598]<br/>[-0.713]]>, fillcolor="#e68742"] ;
48 -> 49 ;
50 [label=<X1 &le; 0.315<br/>squared_error = 0.02<br/>samples = 210<br/>value = [[0.25]<br/>[0.823]<br/>[-0.56]<br/>[-0.687]]>, fillcolor="#e6833d"] ;
49 -> 50 ;
51 [label=<squared_error = 0.014<br/>samples = 107<br/>value = [[0.094]<br/>[0.832]<br/>[-0.562]<br/>[-0.677]]>, fillcolor="#e5823a"] ;
50 -> 51 ;
52 [label=<squared_error = 0.014<br/>samples = 103<br/>value = [[0.411]<br/>[0.814]<br/>[-0.558]<br/>[-0.697]]>, fillcolor="#e5823a"] ;
50 -> 52 ;
53 [label=<squared_error = 0.021<br/>samples = 150<br/>value = [[0.222]<br/>[1.245]<br/>[-0.65]<br/>[-0.749]]>, fillcolor="#e6843d"] ;
49 -> 53 ;
54 [label=<X2 &le; 1.046<br/>squared_error = 0.03<br/>samples = 242<br/>value = [[0.254]<br/>[1.026]<br/>[-0.579]<br/>[-0.248]]>, fillcolor="#e68641"] ;
48 -> 54 ;
55 [label=<squared_error = 0.017<br/>samples = 129<br/>value = [[0.245]<br/>[0.845]<br/>[-0.533]<br/>[-0.205]]>, fillcolor="#e5833c"] ;
54 -> 55 ;
56 [label=<squared_error = 0.021<br/>samples = 113<br/>value = [[0.264]<br/>[1.232]<br/>[-0.631]<br/>[-0.297]]>, fillcolor="#e6843d"] ;
54 -> 56 ;
57 [label=<X4 &le; -0.491<br/>squared_error = 0.043<br/>samples = 580<br/>value = [[0.3]<br/>[0.999]<br/>[-0.135]<br/>[-0.512]]>, fillcolor="#e78a47"] ;
47 -> 57 ;
58 [label=<X2 &le; 1.089<br/>squared_error = 0.03<br/>samples = 306<br/>value = [[0.31]<br/>[0.993]<br/>[-0.143]<br/>[-0.724]]>, fillcolor="#e68641"] ;
57 -> 58 ;
59 [label=<squared_error = 0.019<br/>samples = 175<br/>value = [[0.324]<br/>[0.824]<br/>[-0.1]<br/>[-0.685]]>, fillcolor="#e5833c"] ;
58 -> 59 ;
60 [label=<squared_error = 0.019<br/>samples = 131<br/>value = [[0.292]<br/>[1.22]<br/>[-0.201]<br/>[-0.777]]>, fillcolor="#e5833c"] ;
58 -> 60 ;
61 [label=<X2 &le; 1.07<br/>squared_error = 0.03<br/>samples = 274<br/>value = [[0.288]<br/>[1.006]<br/>[-0.125]<br/>[-0.275]]>, fillcolor="#e68641"] ;
57 -> 61 ;
62 [label=<squared_error = 0.019<br/>samples = 168<br/>value = [[0.296]<br/>[0.853]<br/>[-0.073]<br/>[-0.248]]>, fillcolor="#e5833c"] ;
61 -> 62 ;
63 [label=<squared_error = 0.02<br/>samples = 106<br/>value = [[0.276]<br/>[1.249]<br/>[-0.208]<br/>[-0.318]]>, fillcolor="#e6843d"] ;
61 -> 63 ;
64 [label=<X3 &le; -0.481<br/>squared_error = 0.055<br/>samples = 1283<br/>value = [[0.898]<br/>[1.042]<br/>[-0.365]<br/>[-0.518]]>, fillcolor="#e88d4c"] ;
46 -> 64 ;
65 [label=<X4 &le; -0.492<br/>squared_error = 0.042<br/>samples = 650<br/>value = [[0.878]<br/>[1.05]<br/>[-0.588]<br/>[-0.523]]>, fillcolor="#e78946"] ;
64 -> 65 ;
66 [label=<X2 &le; 1.079<br/>squared_error = 0.03<br/>samples = 354<br/>value = [[0.876]<br/>[1.011]<br/>[-0.583]<br/>[-0.721]]>, fillcolor="#e68641"] ;
65 -> 66 ;
67 [label=<squared_error = 0.019<br/>samples = 187<br/>value = [[0.864]<br/>[0.822]<br/>[-0.561]<br/>[-0.679]]>, fillcolor="#e5833c"] ;
66 -> 67 ;
68 [label=<squared_error = 0.019<br/>samples = 167<br/>value = [[0.89]<br/>[1.221]<br/>[-0.608]<br/>[-0.768]]>, fillcolor="#e5833d"] ;
66 -> 68 ;
69 [label=<X2 &le; 1.117<br/>squared_error = 0.029<br/>samples = 296<br/>value = [[0.88]<br/>[1.098]<br/>[-0.593]<br/>[-0.287]]>, fillcolor="#e68641"] ;
65 -> 69 ;
70 [label=<squared_error = 0.017<br/>samples = 145<br/>value = [[0.864]<br/>[0.885]<br/>[-0.565]<br/>[-0.232]]>, fillcolor="#e5823b"] ;
69 -> 70 ;
71 [label=<squared_error = 0.018<br/>samples = 151<br/>value = [[0.894]<br/>[1.302]<br/>[-0.619]<br/>[-0.339]]>, fillcolor="#e5833c"] ;
69 -> 71 ;
72 [label=<X4 &le; -0.493<br/>squared_error = 0.043<br/>samples = 633<br/>value = [[0.918]<br/>[1.033]<br/>[-0.136]<br/>[-0.513]]>, fillcolor="#e78a47"] ;
64 -> 72 ;
73 [label=<X2 &le; 1.128<br/>squared_error = 0.029<br/>samples = 328<br/>value = [[0.926]<br/>[1.037]<br/>[-0.142]<br/>[-0.736]]>, fillcolor="#e68641"] ;
72 -> 73 ;
74 [label=<squared_error = 0.019<br/>samples = 182<br/>value = [[0.933]<br/>[0.862]<br/>[-0.131]<br/>[-0.711]]>, fillcolor="#e5833d"] ;
73 -> 74 ;
75 [label=<squared_error = 0.019<br/>samples = 146<br/>value = [[0.919]<br/>[1.256]<br/>[-0.157]<br/>[-0.766]]>, fillcolor="#e5833d"] ;
73 -> 75 ;
76 [label=<X2 &le; 1.077<br/>squared_error = 0.029<br/>samples = 305<br/>value = [[0.909]<br/>[1.029]<br/>[-0.13]<br/>[-0.273]]>, fillcolor="#e68641"] ;
72 -> 76 ;
77 [label=<squared_error = 0.018<br/>samples = 174<br/>value = [[0.888]<br/>[0.857]<br/>[-0.1]<br/>[-0.235]]>, fillcolor="#e5833c"] ;
76 -> 77 ;
78 [label=<squared_error = 0.02<br/>samples = 131<br/>value = [[0.938]<br/>[1.256]<br/>[-0.17]<br/>[-0.323]]>, fillcolor="#e6843d"] ;
76 -> 78 ;
79 [label=<X2 &le; 0.716<br/>squared_error = 0.106<br/>samples = 4995<br/>value = [[0.659]<br/>[0.628]<br/>[0.543]<br/>[-0.473]]>, fillcolor="#ea9b62"] ;
3 -> 79 ;
80 [label=<X1 &le; 0.584<br/>squared_error = 0.071<br/>samples = 2748<br/>value = [[0.647]<br/>[0.312]<br/>[0.567]<br/>[-0.447]]>, fillcolor="#e89253"] ;
79 -> 80 ;
81 [label=<X4 &le; -0.468<br/>squared_error = 0.05<br/>samples = 1365<br/>value = [[0.351]<br/>[0.309]<br/>[0.565]<br/>[-0.444]]>, fillcolor="#e78c4a"] ;
80 -> 81 ;
82 [label=<X3 &le; 0.505<br/>squared_error = 0.038<br/>samples = 725<br/>value = [[0.349]<br/>[0.286]<br/>[0.553]<br/>[-0.652]]>, fillcolor="#e78845"] ;
81 -> 82 ;
83 [label=<X2 &le; 0.364<br/>squared_error = 0.027<br/>samples = 365<br/>value = [[0.333]<br/>[0.291]<br/>[0.342]<br/>[-0.652]]>, fillcolor="#e68540"] ;
82 -> 83 ;
84 [label=<squared_error = 0.019<br/>samples = 186<br/>value = [[0.322]<br/>[0.115]<br/>[0.344]<br/>[-0.661]]>, fillcolor="#e5833c"] ;
83 -> 84 ;
85 [label=<squared_error = 0.019<br/>samples = 179<br/>value = [[0.344]<br/>[0.474]<br/>[0.339]<br/>[-0.644]]>, fillcolor="#e5833c"] ;
83 -> 85 ;
86 [label=<X2 &le; 0.334<br/>squared_error = 0.027<br/>samples = 360<br/>value = [[0.365]<br/>[0.28]<br/>[0.768]<br/>[-0.653]]>, fillcolor="#e68540"] ;
82 -> 86 ;
87 [label=<squared_error = 0.018<br/>samples = 169<br/>value = [[0.367]<br/>[0.087]<br/>[0.772]<br/>[-0.647]]>, fillcolor="#e5833c"] ;
86 -> 87 ;
88 [label=<squared_error = 0.019<br/>samples = 191<br/>value = [[0.364]<br/>[0.451]<br/>[0.764]<br/>[-0.658]]>, fillcolor="#e5833c"] ;
86 -> 88 ;
89 [label=<X3 &le; 0.539<br/>squared_error = 0.037<br/>samples = 640<br/>value = [[0.353]<br/>[0.334]<br/>[0.578]<br/>[-0.209]]>, fillcolor="#e68844"] ;
81 -> 89 ;
90 [label=<X2 &le; 0.345<br/>squared_error = 0.026<br/>samples = 327<br/>value = [[0.339]<br/>[0.339]<br/>[0.363]<br/>[-0.211]]>, fillcolor="#e68540"] ;
89 -> 90 ;
91 [label=<squared_error = 0.016<br/>samples = 152<br/>value = [[0.336]<br/>[0.139]<br/>[0.356]<br/>[-0.207]]>, fillcolor="#e5823b"] ;
90 -> 91 ;
92 [label=<squared_error = 0.018<br/>samples = 175<br/>value = [[0.342]<br/>[0.513]<br/>[0.369]<br/>[-0.214]]>, fillcolor="#e5833c"] ;
90 -> 92 ;
93 [label=<X2 &le; 0.336<br/>squared_error = 0.024<br/>samples = 313<br/>value = [[0.368]<br/>[0.329]<br/>[0.802]<br/>[-0.206]]>, fillcolor="#e6843e"] ;
89 -> 93 ;
94 [label=<squared_error = 0.016<br/>samples = 149<br/>value = [[0.365]<br/>[0.14]<br/>[0.793]<br/>[-0.199]]>, fillcolor="#e5823b"] ;
93 -> 94 ;
95 [label=<squared_error = 0.015<br/>samples = 164<br/>value = [[0.37]<br/>[0.501]<br/>[0.81]<br/>[-0.213]]>, fillcolor="#e5823b"] ;
93 -> 95 ;
96 [label=<X4 &le; -0.491<br/>squared_error = 0.049<br/>samples = 1383<br/>value = [[0.94]<br/>[0.315]<br/>[0.57]<br/>[-0.449]]>, fillcolor="#e78c4a"] ;
80 -> 96 ;
97 [label=<X3 &le; 0.516<br/>squared_error = 0.038<br/>samples = 717<br/>value = [[0.939]<br/>[0.29]<br/>[0.574]<br/>[-0.658]]>, fillcolor="#e78845"] ;
96 -> 97 ;
98 [label=<X2 &le; 0.369<br/>squared_error = 0.026<br/>samples = 346<br/>value = [[0.918]<br/>[0.294]<br/>[0.35]<br/>[-0.658]]>, fillcolor="#e68540"] ;
97 -> 98 ;
99 [label=<squared_error = 0.018<br/>samples = 177<br/>value = [[0.935]<br/>[0.118]<br/>[0.338]<br/>[-0.669]]>, fillcolor="#e5833c"] ;
98 -> 99 ;
100 [label=<squared_error = 0.018<br/>samples = 169<br/>value = [[0.901]<br/>[0.477]<br/>[0.362]<br/>[-0.646]]>, fillcolor="#e5833c"] ;
98 -> 100 ;
101 [label=<X2 &le; 0.355<br/>squared_error = 0.026<br/>samples = 371<br/>value = [[0.958]<br/>[0.287]<br/>[0.782]<br/>[-0.658]]>, fillcolor="#e68540"] ;
97 -> 101 ;
102 [label=<squared_error = 0.018<br/>samples = 188<br/>value = [[0.967]<br/>[0.11]<br/>[0.78]<br/>[-0.659]]>, fillcolor="#e5833c"] ;
101 -> 102 ;
103 [label=<squared_error = 0.019<br/>samples = 183<br/>value = [[0.948]<br/>[0.468]<br/>[0.785]<br/>[-0.657]]>, fillcolor="#e5833c"] ;
101 -> 103 ;
104 [label=<X3 &le; 0.521<br/>squared_error = 0.036<br/>samples = 666<br/>value = [[0.941]<br/>[0.342]<br/>[0.565]<br/>[-0.224]]>, fillcolor="#e68844"] ;
96 -> 104 ;
105 [label=<X2 &le; 0.357<br/>squared_error = 0.025<br/>samples = 341<br/>value = [[0.937]<br/>[0.347]<br/>[0.36]<br/>[-0.221]]>, fillcolor="#e6853f"] ;
104 -> 105 ;
106 [label=<squared_error = 0.018<br/>samples = 156<br/>value = [[0.925]<br/>[0.155]<br/>[0.349]<br/>[-0.208]]>, fillcolor="#e5833c"] ;
105 -> 106 ;
107 [label=<squared_error = 0.017<br/>samples = 185<br/>value = [[0.947]<br/>[0.509]<br/>[0.37]<br/>[-0.232]]>, fillcolor="#e5823b"] ;
105 -> 107 ;
108 [label=<X2 &le; 0.367<br/>squared_error = 0.025<br/>samples = 325<br/>value = [[0.945]<br/>[0.336]<br/>[0.781]<br/>[-0.226]]>, fillcolor="#e6853f"] ;
104 -> 108 ;
109 [label=<squared_error = 0.018<br/>samples = 166<br/>value = [[0.922]<br/>[0.168]<br/>[0.781]<br/>[-0.226]]>, fillcolor="#e5833c"] ;
108 -> 109 ;
110 [label=<squared_error = 0.018<br/>samples = 159<br/>value = [[0.97]<br/>[0.512]<br/>[0.78]<br/>[-0.227]]>, fillcolor="#e5833c"] ;
108 -> 110 ;
111 [label=<X1 &le; 0.644<br/>squared_error = 0.078<br/>samples = 2247<br/>value = [[0.674]<br/>[1.014]<br/>[0.514]<br/>[-0.506]]>, fillcolor="#e99456"] ;
79 -> 111 ;
112 [label=<X3 &le; 0.461<br/>squared_error = 0.056<br/>samples = 1157<br/>value = [[0.377]<br/>[0.995]<br/>[0.507]<br/>[-0.492]]>, fillcolor="#e88e4d"] ;
111 -> 112 ;
113 [label=<X4 &le; -0.506<br/>squared_error = 0.042<br/>samples = 531<br/>value = [[0.352]<br/>[1.003]<br/>[0.264]<br/>[-0.491]]>, fillcolor="#e78a46"] ;
112 -> 113 ;
114 [label=<X2 &le; 1.044<br/>squared_error = 0.029<br/>samples = 259<br/>value = [[0.348]<br/>[0.971]<br/>[0.265]<br/>[-0.71]]>, fillcolor="#e68641"] ;
113 -> 114 ;
115 [label=<squared_error = 0.017<br/>samples = 148<br/>value = [[0.356]<br/>[0.793]<br/>[0.291]<br/>[-0.673]]>, fillcolor="#e5833c"] ;
114 -> 115 ;
116 [label=<squared_error = 0.019<br/>samples = 111<br/>value = [[0.337]<br/>[1.209]<br/>[0.23]<br/>[-0.759]]>, fillcolor="#e5833c"] ;
114 -> 116 ;
117 [label=<X2 &le; 1.113<br/>squared_error = 0.031<br/>samples = 272<br/>value = [[0.356]<br/>[1.034]<br/>[0.264]<br/>[-0.282]]>, fillcolor="#e68742"] ;
113 -> 117 ;
118 [label=<squared_error = 0.019<br/>samples = 160<br/>value = [[0.367]<br/>[0.857]<br/>[0.291]<br/>[-0.245]]>, fillcolor="#e5833c"] ;
117 -> 118 ;
119 [label=<squared_error = 0.02<br/>samples = 112<br/>value = [[0.34]<br/>[1.285]<br/>[0.225]<br/>[-0.334]]>, fillcolor="#e5833d"] ;
117 -> 119 ;
120 [label=<X4 &le; -0.487<br/>squared_error = 0.045<br/>samples = 626<br/>value = [[0.398]<br/>[0.988]<br/>[0.712]<br/>[-0.493]]>, fillcolor="#e78a48"] ;
112 -> 120 ;
121 [label=<X2 &le; 1.026<br/>squared_error = 0.032<br/>samples = 326<br/>value = [[0.398]<br/>[0.96]<br/>[0.707]<br/>[-0.709]]>, fillcolor="#e68742"] ;
120 -> 121 ;
122 [label=<squared_error = 0.019<br/>samples = 193<br/>value = [[0.4]<br/>[0.787]<br/>[0.747]<br/>[-0.678]]>, fillcolor="#e5833c"] ;
121 -> 122 ;
123 [label=<squared_error = 0.023<br/>samples = 133<br/>value = [[0.396]<br/>[1.212]<br/>[0.648]<br/>[-0.754]]>, fillcolor="#e6843e"] ;
121 -> 123 ;
124 [label=<X2 &le; 1.083<br/>squared_error = 0.032<br/>samples = 300<br/>value = [[0.397]<br/>[1.018]<br/>[0.718]<br/>[-0.258]]>, fillcolor="#e68742"] ;
120 -> 124 ;
125 [label=<squared_error = 0.02<br/>samples = 188<br/>value = [[0.392]<br/>[0.857]<br/>[0.747]<br/>[-0.23]]>, fillcolor="#e6843d"] ;
124 -> 125 ;
126 [label=<squared_error = 0.022<br/>samples = 112<br/>value = [[0.406]<br/>[1.288]<br/>[0.669]<br/>[-0.304]]>, fillcolor="#e6843d"] ;
124 -> 126 ;
127 [label=<X4 &le; -0.5<br/>squared_error = 0.053<br/>samples = 1090<br/>value = [[0.99]<br/>[1.034]<br/>[0.521]<br/>[-0.522]]>, fillcolor="#e78d4b"] ;
111 -> 127 ;
128 [label=<X3 &le; 0.507<br/>squared_error = 0.041<br/>samples = 601<br/>value = [[0.991]<br/>[1.017]<br/>[0.529]<br/>[-0.722]]>, fillcolor="#e78946"] ;
127 -> 128 ;
129 [label=<X2 &le; 1.07<br/>squared_error = 0.029<br/>samples = 294<br/>value = [[0.96]<br/>[1.025]<br/>[0.305]<br/>[-0.74]]>, fillcolor="#e68641"] ;
128 -> 129 ;
130 [label=<squared_error = 0.016<br/>samples = 136<br/>value = [[0.966]<br/>[0.808]<br/>[0.343]<br/>[-0.691]]>, fillcolor="#e5823b"] ;
129 -> 130 ;
131 [label=<squared_error = 0.019<br/>samples = 158<br/>value = [[0.955]<br/>[1.211]<br/>[0.272]<br/>[-0.782]]>, fillcolor="#e5833c"] ;
129 -> 131 ;
132 [label=<X2 &le; 1.125<br/>squared_error = 0.028<br/>samples = 307<br/>value = [[1.022]<br/>[1.01]<br/>[0.744]<br/>[-0.705]]>, fillcolor="#e68640"] ;
128 -> 132 ;
133 [label=<squared_error = 0.017<br/>samples = 182<br/>value = [[0.997]<br/>[0.841]<br/>[0.77]<br/>[-0.676]]>, fillcolor="#e5833b"] ;
132 -> 133 ;
134 [label=<squared_error = 0.017<br/>samples = 125<br/>value = [[1.058]<br/>[1.256]<br/>[0.707]<br/>[-0.749]]>, fillcolor="#e5833c"] ;
132 -> 134 ;
135 [label=<X2 &le; 1.067<br/>squared_error = 0.04<br/>samples = 489<br/>value = [[0.988]<br/>[1.055]<br/>[0.511]<br/>[-0.275]]>, fillcolor="#e78946"] ;
127 -> 135 ;
136 [label=<X3 &le; 0.509<br/>squared_error = 0.028<br/>samples = 259<br/>value = [[0.974]<br/>[0.863]<br/>[0.556]<br/>[-0.226]]>, fillcolor="#e68640"] ;
135 -> 136 ;
137 [label=<squared_error = 0.016<br/>samples = 133<br/>value = [[0.969]<br/>[0.863]<br/>[0.344]<br/>[-0.232]]>, fillcolor="#e5823b"] ;
136 -> 137 ;
138 [label=<squared_error = 0.016<br/>samples = 126<br/>value = [[0.979]<br/>[0.864]<br/>[0.781]<br/>[-0.22]]>, fillcolor="#e5823b"] ;
136 -> 138 ;
139 [label=<X3 &le; 0.496<br/>squared_error = 0.029<br/>samples = 230<br/>value = [[1.005]<br/>[1.271]<br/>[0.46]<br/>[-0.331]]>, fillcolor="#e68641"] ;
135 -> 139 ;
140 [label=<squared_error = 0.019<br/>samples = 129<br/>value = [[0.972]<br/>[1.266]<br/>[0.279]<br/>[-0.33]]>, fillcolor="#e5833c"] ;
139 -> 140 ;
141 [label=<squared_error = 0.018<br/>samples = 101<br/>value = [[1.046]<br/>[1.279]<br/>[0.692]<br/>[-0.332]]>, fillcolor="#e5833c"] ;
139 -> 141 ;
142 [label=<X3 &le; -0.011<br/>squared_error = 0.154<br/>samples = 10074<br/>value = [[0.617]<br/>[0.717]<br/>[0.091]<br/>[0.418]]>, fillcolor="#eda977"] ;
2 -> 142 ;
143 [label=<X2 &le; 0.698<br/>squared_error = 0.104<br/>samples = 5008<br/>value = [[0.571]<br/>[0.709]<br/>[-0.351]<br/>[0.415]]>, fillcolor="#ea9b62"] ;
142 -> 143 ;
144 [label=<X1 &le; 0.566<br/>squared_error = 0.071<br/>samples = 2715<br/>value = [[0.561]<br/>[0.396]<br/>[-0.331]<br/>[0.441]]>, fillcolor="#e89253"] ;
143 -> 144 ;
145 [label=<X3 &le; -0.511<br/>squared_error = 0.049<br/>samples = 1271<br/>value = [[0.244]<br/>[0.394]<br/>[-0.34]<br/>[0.434]]>, fillcolor="#e78b49"] ;
144 -> 145 ;
146 [label=<X4 &le; 0.491<br/>squared_error = 0.037<br/>samples = 640<br/>value = [[0.22]<br/>[0.401]<br/>[-0.559]<br/>[0.431]]>, fillcolor="#e68844"] ;
145 -> 146 ;
147 [label=<X2 &le; 0.35<br/>squared_error = 0.025<br/>samples = 309<br/>value = [[0.215]<br/>[0.385]<br/>[-0.555]<br/>[0.209]]>, fillcolor="#e6853f"] ;
146 -> 147 ;
148 [label=<squared_error = 0.017<br/>samples = 142<br/>value = [[0.181]<br/>[0.189]<br/>[-0.563]<br/>[0.215]]>, fillcolor="#e5833b"] ;
147 -> 148 ;
149 [label=<squared_error = 0.017<br/>samples = 167<br/>value = [[0.244]<br/>[0.551]<br/>[-0.547]<br/>[0.203]]>, fillcolor="#e5833c"] ;
147 -> 149 ;
150 [label=<X2 &le; 0.342<br/>squared_error = 0.025<br/>samples = 331<br/>value = [[0.224]<br/>[0.417]<br/>[-0.563]<br/>[0.638]]>, fillcolor="#e6853f"] ;
146 -> 150 ;
151 [label=<squared_error = 0.017<br/>samples = 163<br/>value = [[0.234]<br/>[0.248]<br/>[-0.56]<br/>[0.633]]>, fillcolor="#e5833c"] ;
150 -> 151 ;
152 [label=<squared_error = 0.018<br/>samples = 168<br/>value = [[0.214]<br/>[0.581]<br/>[-0.566]<br/>[0.644]]>, fillcolor="#e5833c"] ;
150 -> 152 ;
153 [label=<X4 &le; 0.497<br/>squared_error = 0.037<br/>samples = 631<br/>value = [[0.268]<br/>[0.386]<br/>[-0.119]<br/>[0.438]]>, fillcolor="#e68844"] ;
145 -> 153 ;
154 [label=<X2 &le; 0.338<br/>squared_error = 0.025<br/>samples = 310<br/>value = [[0.255]<br/>[0.353]<br/>[-0.122]<br/>[0.214]]>, fillcolor="#e6853f"] ;
153 -> 154 ;
155 [label=<squared_error = 0.017<br/>samples = 160<br/>value = [[0.253]<br/>[0.187]<br/>[-0.133]<br/>[0.215]]>, fillcolor="#e5833c"] ;
154 -> 155 ;
156 [label=<squared_error = 0.018<br/>samples = 150<br/>value = [[0.256]<br/>[0.529]<br/>[-0.109]<br/>[0.212]]>, fillcolor="#e5833c"] ;
154 -> 156 ;
157 [label=<X2 &le; 0.364<br/>squared_error = 0.024<br/>samples = 321<br/>value = [[0.282]<br/>[0.419]<br/>[-0.116]<br/>[0.654]]>, fillcolor="#e6853f"] ;
153 -> 157 ;
158 [label=<squared_error = 0.017<br/>samples = 164<br/>value = [[0.288]<br/>[0.256]<br/>[-0.108]<br/>[0.644]]>, fillcolor="#e5833c"] ;
157 -> 158 ;
159 [label=<squared_error = 0.017<br/>samples = 157<br/>value = [[0.275]<br/>[0.59]<br/>[-0.124]<br/>[0.666]]>, fillcolor="#e5833b"] ;
157 -> 159 ;
160 [label=<X4 &le; 0.509<br/>squared_error = 0.049<br/>samples = 1444<br/>value = [[0.84]<br/>[0.397]<br/>[-0.323]<br/>[0.447]]>, fillcolor="#e78b49"] ;
144 -> 160 ;
161 [label=<X3 &le; -0.484<br/>squared_error = 0.037<br/>samples = 694<br/>value = [[0.842]<br/>[0.375]<br/>[-0.317]<br/>[0.221]]>, fillcolor="#e68844"] ;
160 -> 161 ;
162 [label=<X2 &le; 0.354<br/>squared_error = 0.026<br/>samples = 351<br/>value = [[0.83]<br/>[0.375]<br/>[-0.528]<br/>[0.232]]>, fillcolor="#e68540"] ;
161 -> 162 ;
163 [label=<squared_error = 0.02<br/>samples = 179<br/>value = [[0.827]<br/>[0.211]<br/>[-0.518]<br/>[0.244]]>, fillcolor="#e5833d"] ;
162 -> 163 ;
164 [label=<squared_error = 0.019<br/>samples = 172<br/>value = [[0.834]<br/>[0.546]<br/>[-0.539]<br/>[0.219]]>, fillcolor="#e5833c"] ;
162 -> 164 ;
165 [label=<X2 &le; 0.324<br/>squared_error = 0.025<br/>samples = 343<br/>value = [[0.855]<br/>[0.374]<br/>[-0.101]<br/>[0.21]]>, fillcolor="#e6853f"] ;
161 -> 165 ;
166 [label=<squared_error = 0.018<br/>samples = 146<br/>value = [[0.834]<br/>[0.18]<br/>[-0.123]<br/>[0.212]]>, fillcolor="#e5833c"] ;
165 -> 166 ;
167 [label=<squared_error = 0.017<br/>samples = 197<br/>value = [[0.87]<br/>[0.519]<br/>[-0.084]<br/>[0.209]]>, fillcolor="#e5833c"] ;
165 -> 167 ;
168 [label=<X3 &le; -0.519<br/>squared_error = 0.037<br/>samples = 750<br/>value = [[0.838]<br/>[0.418]<br/>[-0.329]<br/>[0.656]]>, fillcolor="#e68844"] ;
160 -> 168 ;
169 [label=<X2 &le; 0.364<br/>squared_error = 0.026<br/>samples = 356<br/>value = [[0.837]<br/>[0.413]<br/>[-0.555]<br/>[0.653]]>, fillcolor="#e6853f"] ;
168 -> 169 ;
170 [label=<squared_error = 0.019<br/>samples = 191<br/>value = [[0.83]<br/>[0.256]<br/>[-0.55]<br/>[0.639]]>, fillcolor="#e5833c"] ;
169 -> 170 ;
171 [label=<squared_error = 0.018<br/>samples = 165<br/>value = [[0.845]<br/>[0.594]<br/>[-0.561]<br/>[0.668]]>, fillcolor="#e5833c"] ;
169 -> 171 ;
172 [label=<X2 &le; 0.354<br/>squared_error = 0.026<br/>samples = 394<br/>value = [[0.839]<br/>[0.422]<br/>[-0.124]<br/>[0.66]]>, fillcolor="#e6853f"] ;
168 -> 172 ;
173 [label=<squared_error = 0.018<br/>samples = 194<br/>value = [[0.838]<br/>[0.245]<br/>[-0.134]<br/>[0.649]]>, fillcolor="#e5833c"] ;
172 -> 173 ;
174 [label=<X1 &le; 0.852<br/>squared_error = 0.018<br/>samples = 200<br/>value = [[0.841]<br/>[0.593]<br/>[-0.115]<br/>[0.67]]>, fillcolor="#e5833c"] ;
172 -> 174 ;
175 [label=<squared_error = 0.011<br/>samples = 100<br/>value = [[0.682]<br/>[0.605]<br/>[-0.124]<br/>[0.675]]>, fillcolor="#e58139"] ;
174 -> 175 ;
176 [label=<squared_error = 0.012<br/>samples = 100<br/>value = [[1.001]<br/>[0.58]<br/>[-0.107]<br/>[0.665]]>, fillcolor="#e58139"] ;
174 -> 176 ;
177 [label=<X1 &le; 0.605<br/>squared_error = 0.079<br/>samples = 2293<br/>value = [[0.583]<br/>[1.08]<br/>[-0.375]<br/>[0.384]]>, fillcolor="#e99457"] ;
143 -> 177 ;
178 [label=<X4 &le; 0.502<br/>squared_error = 0.056<br/>samples = 1087<br/>value = [[0.263]<br/>[1.06]<br/>[-0.387]<br/>[0.386]]>, fillcolor="#e88d4d"] ;
177 -> 178 ;
179 [label=<X3 &le; -0.564<br/>squared_error = 0.044<br/>samples = 549<br/>value = [[0.265]<br/>[1.046]<br/>[-0.404]<br/>[0.163]]>, fillcolor="#e78a47"] ;
178 -> 179 ;
180 [label=<X2 &le; 1.071<br/>squared_error = 0.03<br/>samples = 268<br/>value = [[0.256]<br/>[1.056]<br/>[-0.636]<br/>[0.162]]>, fillcolor="#e68641"] ;
179 -> 180 ;
181 [label=<squared_error = 0.019<br/>samples = 165<br/>value = [[0.235]<br/>[0.899]<br/>[-0.601]<br/>[0.194]]>, fillcolor="#e5833c"] ;
180 -> 181 ;
182 [label=<squared_error = 0.019<br/>samples = 103<br/>value = [[0.289]<br/>[1.309]<br/>[-0.692]<br/>[0.109]]>, fillcolor="#e5833c"] ;
180 -> 182 ;
183 [label=<X2 &le; 1.044<br/>squared_error = 0.033<br/>samples = 281<br/>value = [[0.274]<br/>[1.035]<br/>[-0.182]<br/>[0.164]]>, fillcolor="#e68742"] ;
179 -> 183 ;
184 [label=<squared_error = 0.021<br/>samples = 173<br/>value = [[0.282]<br/>[0.875]<br/>[-0.145]<br/>[0.203]]>, fillcolor="#e6843d"] ;
183 -> 184 ;
185 [label=<squared_error = 0.021<br/>samples = 108<br/>value = [[0.26]<br/>[1.293]<br/>[-0.24]<br/>[0.1]]>, fillcolor="#e6843d"] ;
183 -> 185 ;
186 [label=<X3 &le; -0.505<br/>squared_error = 0.042<br/>samples = 538<br/>value = [[0.261]<br/>[1.075]<br/>[-0.371]<br/>[0.615]]>, fillcolor="#e78946"] ;
178 -> 186 ;
187 [label=<X2 &le; 1.037<br/>squared_error = 0.03<br/>samples = 264<br/>value = [[0.242]<br/>[1.08]<br/>[-0.59]<br/>[0.612]]>, fillcolor="#e68641"] ;
186 -> 187 ;
188 [label=<squared_error = 0.019<br/>samples = 163<br/>value = [[0.238]<br/>[0.923]<br/>[-0.554]<br/>[0.643]]>, fillcolor="#e5833c"] ;
187 -> 188 ;
189 [label=<squared_error = 0.02<br/>samples = 101<br/>value = [[0.249]<br/>[1.334]<br/>[-0.649]<br/>[0.56]]>, fillcolor="#e5833d"] ;
187 -> 189 ;
190 [label=<X2 &le; 1.023<br/>squared_error = 0.03<br/>samples = 274<br/>value = [[0.28]<br/>[1.071]<br/>[-0.159]<br/>[0.617]]>, fillcolor="#e68641"] ;
186 -> 190 ;
191 [label=<squared_error = 0.018<br/>samples = 171<br/>value = [[0.284]<br/>[0.918]<br/>[-0.119]<br/>[0.658]]>, fillcolor="#e5833c"] ;
190 -> 191 ;
192 [label=<squared_error = 0.021<br/>samples = 103<br/>value = [[0.272]<br/>[1.324]<br/>[-0.227]<br/>[0.55]]>, fillcolor="#e6843d"] ;
190 -> 192 ;
193 [label=<X4 &le; 0.518<br/>squared_error = 0.056<br/>samples = 1206<br/>value = [[0.871]<br/>[1.097]<br/>[-0.365]<br/>[0.382]]>, fillcolor="#e88d4d"] ;
177 -> 193 ;
194 [label=<X2 &le; 1.089<br/>squared_error = 0.043<br/>samples = 626<br/>value = [[0.869]<br/>[1.083]<br/>[-0.371]<br/>[0.164]]>, fillcolor="#e78a47"] ;
193 -> 194 ;
195 [label=<X3 &le; -0.486<br/>squared_error = 0.03<br/>samples = 352<br/>value = [[0.856]<br/>[0.898]<br/>[-0.343]<br/>[0.202]]>, fillcolor="#e68641"] ;
194 -> 195 ;
196 [label=<squared_error = 0.019<br/>samples = 185<br/>value = [[0.832]<br/>[0.898]<br/>[-0.545]<br/>[0.209]]>, fillcolor="#e5833c"] ;
195 -> 196 ;
197 [label=<squared_error = 0.018<br/>samples = 167<br/>value = [[0.881]<br/>[0.897]<br/>[-0.119]<br/>[0.195]]>, fillcolor="#e5833c"] ;
195 -> 197 ;
198 [label=<X3 &le; -0.598<br/>squared_error = 0.033<br/>samples = 274<br/>value = [[0.886]<br/>[1.322]<br/>[-0.407]<br/>[0.115]]>, fillcolor="#e68742"] ;
194 -> 198 ;
199 [label=<squared_error = 0.021<br/>samples = 112<br/>value = [[0.85]<br/>[1.329]<br/>[-0.655]<br/>[0.121]]>, fillcolor="#e6843d"] ;
198 -> 199 ;
200 [label=<squared_error = 0.022<br/>samples = 162<br/>value = [[0.912]<br/>[1.316]<br/>[-0.235]<br/>[0.111]]>, fillcolor="#e6843e"] ;
198 -> 200 ;
201 [label=<X3 &le; -0.483<br/>squared_error = 0.043<br/>samples = 580<br/>value = [[0.873]<br/>[1.112]<br/>[-0.358]<br/>[0.616]]>, fillcolor="#e78a47"] ;
193 -> 201 ;
202 [label=<X2 &le; 1.095<br/>squared_error = 0.03<br/>samples = 300<br/>value = [[0.854]<br/>[1.105]<br/>[-0.579]<br/>[0.611]]>, fillcolor="#e68641"] ;
201 -> 202 ;
203 [label=<squared_error = 0.018<br/>samples = 186<br/>value = [[0.838]<br/>[0.945]<br/>[-0.56]<br/>[0.642]]>, fillcolor="#e5833c"] ;
202 -> 203 ;
204 [label=<squared_error = 0.021<br/>samples = 114<br/>value = [[0.879]<br/>[1.367]<br/>[-0.611]<br/>[0.56]]>, fillcolor="#e6843d"] ;
202 -> 204 ;
205 [label=<X2 &le; 1.076<br/>squared_error = 0.03<br/>samples = 280<br/>value = [[0.893]<br/>[1.119]<br/>[-0.121]<br/>[0.622]]>, fillcolor="#e68641"] ;
201 -> 205 ;
206 [label=<squared_error = 0.018<br/>samples = 166<br/>value = [[0.865]<br/>[0.947]<br/>[-0.1]<br/>[0.652]]>, fillcolor="#e5833c"] ;
205 -> 206 ;
207 [label=<squared_error = 0.019<br/>samples = 114<br/>value = [[0.934]<br/>[1.37]<br/>[-0.152]<br/>[0.579]]>, fillcolor="#e5833c"] ;
205 -> 207 ;
208 [label=<X2 &le; 0.71<br/>squared_error = 0.106<br/>samples = 5066<br/>value = [[0.662]<br/>[0.726]<br/>[0.529]<br/>[0.421]]>, fillcolor="#ea9b62"] ;
142 -> 208 ;
209 [label=<X1 &le; 0.589<br/>squared_error = 0.073<br/>samples = 2749<br/>value = [[0.65]<br/>[0.409]<br/>[0.551]<br/>[0.441]]>, fillcolor="#e99254"] ;
208 -> 209 ;
210 [label=<X3 &le; 0.491<br/>squared_error = 0.051<br/>samples = 1375<br/>value = [[0.349]<br/>[0.421]<br/>[0.545]<br/>[0.456]]>, fillcolor="#e78c4a"] ;
209 -> 210 ;
211 [label=<X4 &le; 0.48<br/>squared_error = 0.039<br/>samples = 722<br/>value = [[0.333]<br/>[0.419]<br/>[0.332]<br/>[0.451]]>, fillcolor="#e78945"] ;
210 -> 211 ;
212 [label=<X2 &le; 0.356<br/>squared_error = 0.025<br/>samples = 326<br/>value = [[0.339]<br/>[0.392]<br/>[0.334]<br/>[0.205]]>, fillcolor="#e6853f"] ;
211 -> 212 ;
213 [label=<squared_error = 0.018<br/>samples = 150<br/>value = [[0.34]<br/>[0.204]<br/>[0.336]<br/>[0.203]]>, fillcolor="#e5833c"] ;
212 -> 213 ;
214 [label=<squared_error = 0.017<br/>samples = 176<br/>value = [[0.339]<br/>[0.553]<br/>[0.331]<br/>[0.207]]>, fillcolor="#e5833c"] ;
212 -> 214 ;
215 [label=<X2 &le; 0.378<br/>squared_error = 0.027<br/>samples = 396<br/>value = [[0.328]<br/>[0.44]<br/>[0.331]<br/>[0.653]]>, fillcolor="#e68540"] ;
211 -> 215 ;
216 [label=<squared_error = 0.019<br/>samples = 193<br/>value = [[0.328]<br/>[0.251]<br/>[0.323]<br/>[0.658]]>, fillcolor="#e5833c"] ;
215 -> 216 ;
217 [label=<X1 &le; 0.288<br/>squared_error = 0.018<br/>samples = 203<br/>value = [[0.328]<br/>[0.62]<br/>[0.339]<br/>[0.648]]>, fillcolor="#e5833c"] ;
215 -> 217 ;
218 [label=<squared_error = 0.013<br/>samples = 100<br/>value = [[0.181]<br/>[0.621]<br/>[0.328]<br/>[0.655]]>, fillcolor="#e5823a"] ;
217 -> 218 ;
219 [label=<squared_error = 0.013<br/>samples = 103<br/>value = [[0.471]<br/>[0.619]<br/>[0.35]<br/>[0.641]]>, fillcolor="#e5813a"] ;
217 -> 219 ;
220 [label=<X4 &le; 0.51<br/>squared_error = 0.037<br/>samples = 653<br/>value = [[0.367]<br/>[0.423]<br/>[0.78]<br/>[0.462]]>, fillcolor="#e68844"] ;
210 -> 220 ;
221 [label=<X2 &le; 0.392<br/>squared_error = 0.026<br/>samples = 305<br/>value = [[0.361]<br/>[0.412]<br/>[0.779]<br/>[0.231]]>, fillcolor="#e68540"] ;
220 -> 221 ;
222 [label=<squared_error = 0.019<br/>samples = 150<br/>value = [[0.367]<br/>[0.229]<br/>[0.767]<br/>[0.228]]>, fillcolor="#e5833c"] ;
221 -> 222 ;
223 [label=<squared_error = 0.017<br/>samples = 155<br/>value = [[0.355]<br/>[0.589]<br/>[0.79]<br/>[0.235]]>, fillcolor="#e5833c"] ;
221 -> 223 ;
224 [label=<X2 &le; 0.372<br/>squared_error = 0.025<br/>samples = 348<br/>value = [[0.372]<br/>[0.433]<br/>[0.78]<br/>[0.664]]>, fillcolor="#e6853f"] ;
220 -> 224 ;
225 [label=<squared_error = 0.019<br/>samples = 178<br/>value = [[0.364]<br/>[0.272]<br/>[0.795]<br/>[0.667]]>, fillcolor="#e5833c"] ;
224 -> 225 ;
226 [label=<squared_error = 0.017<br/>samples = 170<br/>value = [[0.381]<br/>[0.602]<br/>[0.765]<br/>[0.662]]>, fillcolor="#e5833c"] ;
224 -> 226 ;
227 [label=<X3 &le; 0.494<br/>squared_error = 0.05<br/>samples = 1374<br/>value = [[0.95]<br/>[0.397]<br/>[0.558]<br/>[0.427]]>, fillcolor="#e78c4a"] ;
209 -> 227 ;
228 [label=<X4 &le; 0.491<br/>squared_error = 0.037<br/>samples = 667<br/>value = [[0.933]<br/>[0.388]<br/>[0.327]<br/>[0.418]]>, fillcolor="#e68844"] ;
227 -> 228 ;
229 [label=<X2 &le; 0.356<br/>squared_error = 0.026<br/>samples = 355<br/>value = [[0.936]<br/>[0.375]<br/>[0.332]<br/>[0.218]]>, fillcolor="#e68540"] ;
228 -> 229 ;
230 [label=<squared_error = 0.018<br/>samples = 178<br/>value = [[0.946]<br/>[0.188]<br/>[0.338]<br/>[0.21]]>, fillcolor="#e5833c"] ;
229 -> 230 ;
231 [label=<squared_error = 0.017<br/>samples = 177<br/>value = [[0.925]<br/>[0.562]<br/>[0.326]<br/>[0.225]]>, fillcolor="#e5833c"] ;
229 -> 231 ;
232 [label=<X2 &le; 0.357<br/>squared_error = 0.025<br/>samples = 312<br/>value = [[0.93]<br/>[0.403]<br/>[0.322]<br/>[0.646]]>, fillcolor="#e6853f"] ;
228 -> 232 ;
233 [label=<squared_error = 0.017<br/>samples = 178<br/>value = [[0.943]<br/>[0.249]<br/>[0.327]<br/>[0.657]]>, fillcolor="#e5833c"] ;
232 -> 233 ;
234 [label=<squared_error = 0.017<br/>samples = 134<br/>value = [[0.913]<br/>[0.608]<br/>[0.315]<br/>[0.632]]>, fillcolor="#e5833b"] ;
232 -> 234 ;
235 [label=<X4 &le; 0.504<br/>squared_error = 0.038<br/>samples = 707<br/>value = [[0.966]<br/>[0.406]<br/>[0.775]<br/>[0.435]]>, fillcolor="#e78845"] ;
227 -> 235 ;
236 [label=<X2 &le; 0.358<br/>squared_error = 0.025<br/>samples = 373<br/>value = [[0.968]<br/>[0.384]<br/>[0.774]<br/>[0.227]]>, fillcolor="#e6853f"] ;
235 -> 236 ;
237 [label=<squared_error = 0.018<br/>samples = 184<br/>value = [[0.986]<br/>[0.205]<br/>[0.78]<br/>[0.229]]>, fillcolor="#e5833c"] ;
236 -> 237 ;
238 [label=<squared_error = 0.017<br/>samples = 189<br/>value = [[0.951]<br/>[0.558]<br/>[0.768]<br/>[0.225]]>, fillcolor="#e5833b"] ;
236 -> 238 ;
239 [label=<X2 &le; 0.355<br/>squared_error = 0.027<br/>samples = 334<br/>value = [[0.964]<br/>[0.43]<br/>[0.777]<br/>[0.667]]>, fillcolor="#e68540"] ;
235 -> 239 ;
240 [label=<squared_error = 0.018<br/>samples = 160<br/>value = [[0.958]<br/>[0.239]<br/>[0.766]<br/>[0.671]]>, fillcolor="#e5833c"] ;
239 -> 240 ;
241 [label=<squared_error = 0.018<br/>samples = 174<br/>value = [[0.97]<br/>[0.606]<br/>[0.788]<br/>[0.664]]>, fillcolor="#e5833c"] ;
239 -> 241 ;
242 [label=<X1 &le; 0.61<br/>squared_error = 0.079<br/>samples = 2317<br/>value = [[0.677]<br/>[1.102]<br/>[0.502]<br/>[0.397]]>, fillcolor="#e99456"] ;
208 -> 242 ;
243 [label=<X4 &le; 0.508<br/>squared_error = 0.056<br/>samples = 1109<br/>value = [[0.357]<br/>[1.093]<br/>[0.499]<br/>[0.405]]>, fillcolor="#e88d4d"] ;
242 -> 243 ;
244 [label=<X3 &le; 0.469<br/>squared_error = 0.043<br/>samples = 525<br/>value = [[0.362]<br/>[1.066]<br/>[0.511]<br/>[0.165]]>, fillcolor="#e78a47"] ;
243 -> 244 ;
245 [label=<X2 &le; 1.074<br/>squared_error = 0.03<br/>samples = 239<br/>value = [[0.345]<br/>[1.074]<br/>[0.257]<br/>[0.154]]>, fillcolor="#e68641"] ;
244 -> 245 ;
246 [label=<squared_error = 0.018<br/>samples = 131<br/>value = [[0.356]<br/>[0.891]<br/>[0.289]<br/>[0.203]]>, fillcolor="#e5833c"] ;
245 -> 246 ;
247 [label=<squared_error = 0.02<br/>samples = 108<br/>value = [[0.331]<br/>[1.295]<br/>[0.219]<br/>[0.095]]>, fillcolor="#e5833d"] ;
245 -> 247 ;
248 [label=<X2 &le; 1.069<br/>squared_error = 0.03<br/>samples = 286<br/>value = [[0.376]<br/>[1.06]<br/>[0.723]<br/>[0.174]]>, fillcolor="#e68641"] ;
244 -> 248 ;
249 [label=<squared_error = 0.018<br/>samples = 175<br/>value = [[0.376]<br/>[0.901]<br/>[0.752]<br/>[0.209]]>, fillcolor="#e5833c"] ;
248 -> 249 ;
250 [label=<squared_error = 0.02<br/>samples = 111<br/>value = [[0.375]<br/>[1.31]<br/>[0.679]<br/>[0.119]]>, fillcolor="#e6833d"] ;
248 -> 250 ;
251 [label=<X3 &le; 0.457<br/>squared_error = 0.043<br/>samples = 584<br/>value = [[0.354]<br/>[1.116]<br/>[0.488]<br/>[0.62]]>, fillcolor="#e78a47"] ;
243 -> 251 ;
252 [label=<X2 &le; 1.067<br/>squared_error = 0.031<br/>samples = 290<br/>value = [[0.341]<br/>[1.129]<br/>[0.263]<br/>[0.614]]>, fillcolor="#e68641"] ;
251 -> 252 ;
253 [label=<squared_error = 0.018<br/>samples = 161<br/>value = [[0.344]<br/>[0.942]<br/>[0.306]<br/>[0.644]]>, fillcolor="#e5833c"] ;
252 -> 253 ;
254 [label=<squared_error = 0.02<br/>samples = 129<br/>value = [[0.338]<br/>[1.362]<br/>[0.209]<br/>[0.576]]>, fillcolor="#e6833d"] ;
252 -> 254 ;
255 [label=<X2 &le; 1.053<br/>squared_error = 0.029<br/>samples = 294<br/>value = [[0.366]<br/>[1.104]<br/>[0.711]<br/>[0.626]]>, fillcolor="#e68641"] ;
251 -> 255 ;
256 [label=<squared_error = 0.018<br/>samples = 168<br/>value = [[0.368]<br/>[0.931]<br/>[0.745]<br/>[0.664]]>, fillcolor="#e5833c"] ;
255 -> 256 ;
257 [label=<squared_error = 0.019<br/>samples = 126<br/>value = [[0.364]<br/>[1.335]<br/>[0.666]<br/>[0.576]]>, fillcolor="#e5833c"] ;
255 -> 257 ;
258 [label=<X3 &le; 0.515<br/>squared_error = 0.055<br/>samples = 1208<br/>value = [[0.97]<br/>[1.11]<br/>[0.506]<br/>[0.39]]>, fillcolor="#e78d4c"] ;
242 -> 258 ;
259 [label=<X4 &le; 0.508<br/>squared_error = 0.042<br/>samples = 666<br/>value = [[0.945]<br/>[1.105]<br/>[0.304]<br/>[0.385]]>, fillcolor="#e78946"] ;
258 -> 259 ;
260 [label=<X2 &le; 1.059<br/>squared_error = 0.031<br/>samples = 342<br/>value = [[0.955]<br/>[1.078]<br/>[0.3]<br/>[0.176]]>, fillcolor="#e68641"] ;
259 -> 260 ;
261 [label=<squared_error = 0.018<br/>samples = 180<br/>value = [[0.936]<br/>[0.888]<br/>[0.334]<br/>[0.23]]>, fillcolor="#e5833c"] ;
260 -> 261 ;
262 [label=<squared_error = 0.021<br/>samples = 162<br/>value = [[0.976]<br/>[1.29]<br/>[0.263]<br/>[0.116]]>, fillcolor="#e6843d"] ;
260 -> 262 ;
263 [label=<X2 &le; 1.111<br/>squared_error = 0.029<br/>samples = 324<br/>value = [[0.934]<br/>[1.134]<br/>[0.307]<br/>[0.606]]>, fillcolor="#e68641"] ;
259 -> 263 ;
264 [label=<squared_error = 0.018<br/>samples = 190<br/>value = [[0.918]<br/>[0.964]<br/>[0.326]<br/>[0.64]]>, fillcolor="#e5833c"] ;
263 -> 264 ;
265 [label=<squared_error = 0.019<br/>samples = 134<br/>value = [[0.957]<br/>[1.375]<br/>[0.28]<br/>[0.558]]>, fillcolor="#e5833d"] ;
263 -> 265 ;
266 [label=<X4 &le; 0.49<br/>squared_error = 0.042<br/>samples = 542<br/>value = [[1.002]<br/>[1.116]<br/>[0.754]<br/>[0.395]]>, fillcolor="#e78946"] ;
258 -> 266 ;
267 [label=<X2 &le; 1.088<br/>squared_error = 0.029<br/>samples = 256<br/>value = [[0.996]<br/>[1.097]<br/>[0.742]<br/>[0.159]]>, fillcolor="#e68641"] ;
266 -> 267 ;
268 [label=<squared_error = 0.017<br/>samples = 136<br/>value = [[0.978]<br/>[0.911]<br/>[0.772]<br/>[0.21]]>, fillcolor="#e5833c"] ;
267 -> 268 ;
269 [label=<squared_error = 0.02<br/>samples = 120<br/>value = [[1.016]<br/>[1.308]<br/>[0.709]<br/>[0.101]]>, fillcolor="#e6833d"] ;
267 -> 269 ;
270 [label=<X2 &le; 1.063<br/>squared_error = 0.029<br/>samples = 286<br/>value = [[1.008]<br/>[1.133]<br/>[0.764]<br/>[0.606]]>, fillcolor="#e68641"] ;
266 -> 270 ;
271 [label=<squared_error = 0.017<br/>samples = 155<br/>value = [[0.984]<br/>[0.951]<br/>[0.797]<br/>[0.645]]>, fillcolor="#e5833b"] ;
270 -> 271 ;
272 [label=<squared_error = 0.02<br/>samples = 131<br/>value = [[1.036]<br/>[1.349]<br/>[0.726]<br/>[0.56]]>, fillcolor="#e6843d"] ;
270 -> 272 ;
273 [label=<X4 &le; 0.012<br/>squared_error = 0.225<br/>samples = 20067<br/>value = [[1.762]<br/>[0.841]<br/>[0.091]<br/>[-0.043]]>, fillcolor="#f1bc96"] ;
1 -> 273 ;
274 [label=<X3 &le; -0.005<br/>squared_error = 0.177<br/>samples = 10084<br/>value = [[1.762]<br/>[0.794]<br/>[0.089]<br/>[-0.484]]>, fillcolor="#eeaf81"] ;
273 -> 274 ;
275 [label=<X2 &le; 0.959<br/>squared_error = 0.126<br/>samples = 4957<br/>value = [[1.716]<br/>[0.801]<br/>[-0.362]<br/>[-0.491]]>, fillcolor="#eca16b"] ;
274 -> 275 ;
276 [label=<X2 &le; 0.478<br/>squared_error = 0.066<br/>samples = 2579<br/>value = [[1.554]<br/>[0.441]<br/>[-0.339]<br/>[-0.447]]>, fillcolor="#e89051"] ;
275 -> 276 ;
277 [label=<X4 &le; -0.471<br/>squared_error = 0.051<br/>samples = 1248<br/>value = [[1.558]<br/>[0.197]<br/>[-0.34]<br/>[-0.44]]>, fillcolor="#e78c4a"] ;
276 -> 277 ;
278 [label=<X3 &le; -0.492<br/>squared_error = 0.038<br/>samples = 622<br/>value = [[1.561]<br/>[0.173]<br/>[-0.353]<br/>[-0.665]]>, fillcolor="#e78845"] ;
277 -> 278 ;
279 [label=<X1 &le; 1.603<br/>squared_error = 0.027<br/>samples = 334<br/>value = [[1.535]<br/>[0.177]<br/>[-0.549]<br/>[-0.663]]>, fillcolor="#e68540"] ;
278 -> 279 ;
280 [label=<squared_error = 0.017<br/>samples = 180<br/>value = [[1.354]<br/>[0.172]<br/>[-0.548]<br/>[-0.648]]>, fillcolor="#e5833c"] ;
279 -> 280 ;
281 [label=<squared_error = 0.018<br/>samples = 154<br/>value = [[1.748]<br/>[0.183]<br/>[-0.551]<br/>[-0.681]]>, fillcolor="#e5833c"] ;
279 -> 281 ;
282 [label=<X1 &le; 1.593<br/>squared_error = 0.026<br/>samples = 288<br/>value = [[1.591]<br/>[0.169]<br/>[-0.126]<br/>[-0.667]]>, fillcolor="#e6853f"] ;
278 -> 282 ;
283 [label=<squared_error = 0.015<br/>samples = 142<br/>value = [[1.394]<br/>[0.183]<br/>[-0.127]<br/>[-0.654]]>, fillcolor="#e5823b"] ;
282 -> 283 ;
284 [label=<squared_error = 0.017<br/>samples = 146<br/>value = [[1.783]<br/>[0.155]<br/>[-0.125]<br/>[-0.679]]>, fillcolor="#e5823b"] ;
282 -> 284 ;
285 [label=<X3 &le; -0.496<br/>squared_error = 0.039<br/>samples = 626<br/>value = [[1.554]<br/>[0.22]<br/>[-0.326]<br/>[-0.217]]>, fillcolor="#e78945"] ;
277 -> 285 ;
286 [label=<X1 &le; 1.621<br/>squared_error = 0.028<br/>samples = 312<br/>value = [[1.54]<br/>[0.221]<br/>[-0.548]<br/>[-0.214]]>, fillcolor="#e68640"] ;
285 -> 286 ;
287 [label=<squared_error = 0.017<br/>samples = 172<br/>value = [[1.348]<br/>[0.221]<br/>[-0.545]<br/>[-0.216]]>, fillcolor="#e5833c"] ;
286 -> 287 ;
288 [label=<squared_error = 0.016<br/>samples = 140<br/>value = [[1.776]<br/>[0.221]<br/>[-0.551]<br/>[-0.211]]>, fillcolor="#e5823b"] ;
286 -> 288 ;
289 [label=<X1 &le; 1.585<br/>squared_error = 0.025<br/>samples = 314<br/>value = [[1.569]<br/>[0.22]<br/>[-0.106]<br/>[-0.22]]>, fillcolor="#e6853f"] ;
285 -> 289 ;
290 [label=<squared_error = 0.015<br/>samples = 164<br/>value = [[1.379]<br/>[0.227]<br/>[-0.111]<br/>[-0.217]]>, fillcolor="#e5823b"] ;
289 -> 290 ;
291 [label=<squared_error = 0.016<br/>samples = 150<br/>value = [[1.776]<br/>[0.213]<br/>[-0.102]<br/>[-0.222]]>, fillcolor="#e5823b"] ;
289 -> 291 ;
292 [label=<X4 &le; -0.48<br/>squared_error = 0.053<br/>samples = 1331<br/>value = [[1.551]<br/>[0.669]<br/>[-0.339]<br/>[-0.454]]>, fillcolor="#e78c4b"] ;
276 -> 292 ;
293 [label=<X3 &le; -0.527<br/>squared_error = 0.039<br/>samples = 694<br/>value = [[1.551]<br/>[0.638]<br/>[-0.34]<br/>[-0.671]]>, fillcolor="#e78945"] ;
292 -> 293 ;
294 [label=<X1 &le; 1.591<br/>squared_error = 0.027<br/>samples = 329<br/>value = [[1.529]<br/>[0.64]<br/>[-0.567]<br/>[-0.673]]>, fillcolor="#e68540"] ;
293 -> 294 ;
295 [label=<squared_error = 0.016<br/>samples = 170<br/>value = [[1.327]<br/>[0.638]<br/>[-0.551]<br/>[-0.68]]>, fillcolor="#e5823b"] ;
294 -> 295 ;
296 [label=<squared_error = 0.016<br/>samples = 159<br/>value = [[1.745]<br/>[0.641]<br/>[-0.584]<br/>[-0.665]]>, fillcolor="#e5823b"] ;
294 -> 296 ;
297 [label=<X1 &le; 1.566<br/>squared_error = 0.028<br/>samples = 365<br/>value = [[1.571]<br/>[0.636]<br/>[-0.134]<br/>[-0.669]]>, fillcolor="#e68640"] ;
293 -> 297 ;
298 [label=<squared_error = 0.017<br/>samples = 171<br/>value = [[1.348]<br/>[0.646]<br/>[-0.135]<br/>[-0.668]]>, fillcolor="#e5833c"] ;
297 -> 298 ;
299 [label=<squared_error = 0.018<br/>samples = 194<br/>value = [[1.768]<br/>[0.628]<br/>[-0.134]<br/>[-0.671]]>, fillcolor="#e5833c"] ;
297 -> 299 ;
300 [label=<X3 &le; -0.513<br/>squared_error = 0.039<br/>samples = 637<br/>value = [[1.552]<br/>[0.704]<br/>[-0.338]<br/>[-0.218]]>, fillcolor="#e78945"] ;
292 -> 300 ;
301 [label=<X1 &le; 1.603<br/>squared_error = 0.027<br/>samples = 323<br/>value = [[1.516]<br/>[0.703]<br/>[-0.556]<br/>[-0.218]]>, fillcolor="#e68540"] ;
300 -> 301 ;
302 [label=<squared_error = 0.016<br/>samples = 177<br/>value = [[1.324]<br/>[0.707]<br/>[-0.561]<br/>[-0.218]]>, fillcolor="#e5823b"] ;
301 -> 302 ;
303 [label=<squared_error = 0.016<br/>samples = 146<br/>value = [[1.75]<br/>[0.698]<br/>[-0.55]<br/>[-0.217]]>, fillcolor="#e5823b"] ;
301 -> 303 ;
304 [label=<X1 &le; 1.592<br/>squared_error = 0.026<br/>samples = 314<br/>value = [[1.588]<br/>[0.704]<br/>[-0.113]<br/>[-0.218]]>, fillcolor="#e6853f"] ;
300 -> 304 ;
305 [label=<squared_error = 0.016<br/>samples = 157<br/>value = [[1.391]<br/>[0.696]<br/>[-0.108]<br/>[-0.228]]>, fillcolor="#e5823b"] ;
304 -> 305 ;
306 [label=<squared_error = 0.016<br/>samples = 157<br/>value = [[1.786]<br/>[0.713]<br/>[-0.119]<br/>[-0.207]]>, fillcolor="#e5823b"] ;
304 -> 306 ;
307 [label=<X1 &le; 2.086<br/>squared_error = 0.101<br/>samples = 2378<br/>value = [[1.89]<br/>[1.191]<br/>[-0.387]<br/>[-0.538]]>, fillcolor="#ea9a60"] ;
275 -> 307 ;
308 [label=<X4 &le; -0.482<br/>squared_error = 0.055<br/>samples = 1597<br/>value = [[1.591]<br/>[1.186]<br/>[-0.361]<br/>[-0.524]]>, fillcolor="#e78d4c"] ;
307 -> 308 ;
309 [label=<X3 &le; -0.479<br/>squared_error = 0.042<br/>samples = 821<br/>value = [[1.597]<br/>[1.161]<br/>[-0.354]<br/>[-0.74]]>, fillcolor="#e78a46"] ;
308 -> 309 ;
310 [label=<X1 &le; 1.641<br/>squared_error = 0.03<br/>samples = 416<br/>value = [[1.573]<br/>[1.158]<br/>[-0.568]<br/>[-0.74]]>, fillcolor="#e68641"] ;
309 -> 310 ;
311 [label=<X2 &le; 1.22<br/>squared_error = 0.019<br/>samples = 215<br/>value = [[1.366]<br/>[1.153]<br/>[-0.563]<br/>[-0.734]]>, fillcolor="#e5833c"] ;
310 -> 311 ;
312 [label=<squared_error = 0.014<br/>samples = 104<br/>value = [[1.359]<br/>[1.014]<br/>[-0.551]<br/>[-0.716]]>, fillcolor="#e5823a"] ;
311 -> 312 ;
313 [label=<squared_error = 0.015<br/>samples = 111<br/>value = [[1.372]<br/>[1.284]<br/>[-0.574]<br/>[-0.751]]>, fillcolor="#e5823a"] ;
311 -> 313 ;
314 [label=<X2 &le; 1.243<br/>squared_error = 0.019<br/>samples = 201<br/>value = [[1.793]<br/>[1.162]<br/>[-0.574]<br/>[-0.746]]>, fillcolor="#e5833c"] ;
310 -> 314 ;
315 [label=<squared_error = 0.014<br/>samples = 100<br/>value = [[1.793]<br/>[1.017]<br/>[-0.571]<br/>[-0.722]]>, fillcolor="#e5823a"] ;
314 -> 315 ;
316 [label=<squared_error = 0.014<br/>samples = 101<br/>value = [[1.794]<br/>[1.306]<br/>[-0.576]<br/>[-0.77]]>, fillcolor="#e5823a"] ;
314 -> 316 ;
317 [label=<X1 &le; 1.638<br/>squared_error = 0.03<br/>samples = 405<br/>value = [[1.622]<br/>[1.165]<br/>[-0.134]<br/>[-0.74]]>, fillcolor="#e68641"] ;
309 -> 317 ;
318 [label=<X2 &le; 1.257<br/>squared_error = 0.019<br/>samples = 207<br/>value = [[1.413]<br/>[1.18]<br/>[-0.126]<br/>[-0.733]]>, fillcolor="#e5833c"] ;
317 -> 318 ;
319 [label=<squared_error = 0.014<br/>samples = 100<br/>value = [[1.4]<br/>[1.039]<br/>[-0.121]<br/>[-0.732]]>, fillcolor="#e5823a"] ;
318 -> 319 ;
320 [label=<squared_error = 0.014<br/>samples = 107<br/>value = [[1.425]<br/>[1.312]<br/>[-0.132]<br/>[-0.734]]>, fillcolor="#e5823a"] ;
318 -> 320 ;
321 [label=<squared_error = 0.018<br/>samples = 198<br/>value = [[1.842]<br/>[1.149]<br/>[-0.142]<br/>[-0.747]]>, fillcolor="#e5833c"] ;
317 -> 321 ;
322 [label=<X1 &le; 1.621<br/>squared_error = 0.043<br/>samples = 776<br/>value = [[1.585]<br/>[1.212]<br/>[-0.367]<br/>[-0.296]]>, fillcolor="#e78a47"] ;
308 -> 322 ;
323 [label=<X3 &le; -0.495<br/>squared_error = 0.03<br/>samples = 385<br/>value = [[1.36]<br/>[1.214]<br/>[-0.362]<br/>[-0.3]]>, fillcolor="#e68641"] ;
322 -> 323 ;
324 [label=<squared_error = 0.018<br/>samples = 196<br/>value = [[1.341]<br/>[1.22]<br/>[-0.569]<br/>[-0.291]]>, fillcolor="#e5833c"] ;
323 -> 324 ;
325 [label=<squared_error = 0.018<br/>samples = 189<br/>value = [[1.38]<br/>[1.208]<br/>[-0.147]<br/>[-0.31]]>, fillcolor="#e5833c"] ;
323 -> 325 ;
326 [label=<X3 &le; -0.481<br/>squared_error = 0.031<br/>samples = 391<br/>value = [[1.807]<br/>[1.211]<br/>[-0.373]<br/>[-0.291]]>, fillcolor="#e68641"] ;
322 -> 326 ;
327 [label=<X2 &le; 1.238<br/>squared_error = 0.019<br/>samples = 214<br/>value = [[1.795]<br/>[1.207]<br/>[-0.573]<br/>[-0.293]]>, fillcolor="#e5833c"] ;
326 -> 327 ;
328 [label=<squared_error = 0.014<br/>samples = 109<br/>value = [[1.805]<br/>[1.071]<br/>[-0.583]<br/>[-0.301]]>, fillcolor="#e5823a"] ;
327 -> 328 ;
329 [label=<squared_error = 0.014<br/>samples = 105<br/>value = [[1.786]<br/>[1.348]<br/>[-0.562]<br/>[-0.286]]>, fillcolor="#e5823a"] ;
327 -> 329 ;
330 [label=<squared_error = 0.018<br/>samples = 177<br/>value = [[1.822]<br/>[1.215]<br/>[-0.132]<br/>[-0.289]]>, fillcolor="#e5833c"] ;
326 -> 330 ;
331 [label=<X1 &le; 2.538<br/>squared_error = 0.056<br/>samples = 781<br/>value = [[2.501]<br/>[1.202]<br/>[-0.442]<br/>[-0.565]]>, fillcolor="#e88d4c"] ;
307 -> 331 ;
332 [label=<X4 &le; -0.478<br/>squared_error = 0.044<br/>samples = 378<br/>value = [[2.267]<br/>[1.211]<br/>[-0.461]<br/>[-0.567]]>, fillcolor="#e78a47"] ;
331 -> 332 ;
333 [label=<X3 &le; -0.514<br/>squared_error = 0.03<br/>samples = 217<br/>value = [[2.262]<br/>[1.191]<br/>[-0.466]<br/>[-0.763]]>, fillcolor="#e68641"] ;
332 -> 333 ;
334 [label=<squared_error = 0.019<br/>samples = 111<br/>value = [[2.244]<br/>[1.185]<br/>[-0.672]<br/>[-0.788]]>, fillcolor="#e5833c"] ;
333 -> 334 ;
335 [label=<squared_error = 0.019<br/>samples = 106<br/>value = [[2.28]<br/>[1.198]<br/>[-0.25]<br/>[-0.738]]>, fillcolor="#e5833c"] ;
333 -> 335 ;
336 [label=<squared_error = 0.031<br/>samples = 161<br/>value = [[2.273]<br/>[1.236]<br/>[-0.455]<br/>[-0.302]]>, fillcolor="#e68641"] ;
332 -> 336 ;
337 [label=<X4 &le; -0.496<br/>squared_error = 0.042<br/>samples = 403<br/>value = [[2.721]<br/>[1.193]<br/>[-0.423]<br/>[-0.564]]>, fillcolor="#e78a46"] ;
331 -> 337 ;
338 [label=<X3 &le; -0.495<br/>squared_error = 0.03<br/>samples = 208<br/>value = [[2.726]<br/>[1.161]<br/>[-0.431]<br/>[-0.775]]>, fillcolor="#e68641"] ;
337 -> 338 ;
339 [label=<squared_error = 0.018<br/>samples = 101<br/>value = [[2.71]<br/>[1.165]<br/>[-0.65]<br/>[-0.776]]>, fillcolor="#e5833c"] ;
338 -> 339 ;
340 [label=<squared_error = 0.019<br/>samples = 107<br/>value = [[2.742]<br/>[1.158]<br/>[-0.225]<br/>[-0.775]]>, fillcolor="#e5833c"] ;
338 -> 340 ;
341 [label=<squared_error = 0.03<br/>samples = 195<br/>value = [[2.715]<br/>[1.228]<br/>[-0.415]<br/>[-0.339]]>, fillcolor="#e68641"] ;
337 -> 341 ;
342 [label=<X2 &le; 0.915<br/>squared_error = 0.128<br/>samples = 5127<br/>value = [[1.807]<br/>[0.788]<br/>[0.525]<br/>[-0.477]]>, fillcolor="#eca16c"] ;
274 -> 342 ;
343 [label=<X3 &le; 0.502<br/>squared_error = 0.065<br/>samples = 2618<br/>value = [[1.646]<br/>[0.415]<br/>[0.551]<br/>[-0.433]]>, fillcolor="#e89050"] ;
342 -> 343 ;
344 [label=<X2 &le; 0.442<br/>squared_error = 0.052<br/>samples = 1321<br/>value = [[1.628]<br/>[0.408]<br/>[0.324]<br/>[-0.434]]>, fillcolor="#e78c4b"] ;
343 -> 344 ;
345 [label=<X4 &le; -0.502<br/>squared_error = 0.038<br/>samples = 645<br/>value = [[1.629]<br/>[0.178]<br/>[0.317]<br/>[-0.435]]>, fillcolor="#e78845"] ;
344 -> 345 ;
346 [label=<X1 &le; 1.604<br/>squared_error = 0.026<br/>samples = 312<br/>value = [[1.646]<br/>[0.161]<br/>[0.315]<br/>[-0.659]]>, fillcolor="#e6853f"] ;
345 -> 346 ;
347 [label=<squared_error = 0.016<br/>samples = 151<br/>value = [[1.436]<br/>[0.157]<br/>[0.316]<br/>[-0.665]]>, fillcolor="#e5823b"] ;
346 -> 347 ;
348 [label=<squared_error = 0.016<br/>samples = 161<br/>value = [[1.844]<br/>[0.164]<br/>[0.315]<br/>[-0.653]]>, fillcolor="#e5823b"] ;
346 -> 348 ;
349 [label=<X1 &le; 1.54<br/>squared_error = 0.026<br/>samples = 333<br/>value = [[1.613]<br/>[0.195]<br/>[0.319]<br/>[-0.226]]>, fillcolor="#e6853f"] ;
345 -> 349 ;
350 [label=<squared_error = 0.016<br/>samples = 143<br/>value = [[1.39]<br/>[0.193]<br/>[0.306]<br/>[-0.227]]>, fillcolor="#e5823b"] ;
349 -> 350 ;
351 [label=<squared_error = 0.016<br/>samples = 190<br/>value = [[1.781]<br/>[0.196]<br/>[0.328]<br/>[-0.225]]>, fillcolor="#e5823b"] ;
349 -> 351 ;
352 [label=<X4 &le; -0.512<br/>squared_error = 0.04<br/>samples = 676<br/>value = [[1.627]<br/>[0.626]<br/>[0.332]<br/>[-0.433]]>, fillcolor="#e78946"] ;
344 -> 352 ;
353 [label=<X1 &le; 1.604<br/>squared_error = 0.027<br/>samples = 300<br/>value = [[1.625]<br/>[0.6]<br/>[0.331]<br/>[-0.688]]>, fillcolor="#e68540"] ;
352 -> 353 ;
354 [label=<squared_error = 0.016<br/>samples = 152<br/>value = [[1.417]<br/>[0.612]<br/>[0.324]<br/>[-0.685]]>, fillcolor="#e5823b"] ;
353 -> 354 ;
355 [label=<squared_error = 0.016<br/>samples = 148<br/>value = [[1.839]<br/>[0.588]<br/>[0.339]<br/>[-0.691]]>, fillcolor="#e5823b"] ;
353 -> 355 ;
356 [label=<X1 &le; 1.548<br/>squared_error = 0.027<br/>samples = 376<br/>value = [[1.629]<br/>[0.647]<br/>[0.332]<br/>[-0.229]]>, fillcolor="#e68540"] ;
352 -> 356 ;
357 [label=<squared_error = 0.017<br/>samples = 155<br/>value = [[1.387]<br/>[0.658]<br/>[0.323]<br/>[-0.227]]>, fillcolor="#e5823b"] ;
356 -> 357 ;
358 [label=<X4 &le; -0.271<br/>squared_error = 0.018<br/>samples = 221<br/>value = [[1.798]<br/>[0.64]<br/>[0.338]<br/>[-0.23]]>, fillcolor="#e5833c"] ;
356 -> 358 ;
359 [label=<squared_error = 0.013<br/>samples = 106<br/>value = [[1.802]<br/>[0.609]<br/>[0.332]<br/>[-0.356]]>, fillcolor="#e5823a"] ;
358 -> 359 ;
360 [label=<squared_error = 0.014<br/>samples = 115<br/>value = [[1.794]<br/>[0.668]<br/>[0.343]<br/>[-0.114]]>, fillcolor="#e5823a"] ;
358 -> 360 ;
361 [label=<X2 &le; 0.443<br/>squared_error = 0.052<br/>samples = 1297<br/>value = [[1.665]<br/>[0.422]<br/>[0.781]<br/>[-0.433]]>, fillcolor="#e78c4b"] ;
343 -> 361 ;
362 [label=<X4 &le; -0.469<br/>squared_error = 0.039<br/>samples = 605<br/>value = [[1.668]<br/>[0.173]<br/>[0.782]<br/>[-0.437]]>, fillcolor="#e78945"] ;
361 -> 362 ;
363 [label=<X1 &le; 1.564<br/>squared_error = 0.027<br/>samples = 318<br/>value = [[1.641]<br/>[0.15]<br/>[0.777]<br/>[-0.648]]>, fillcolor="#e68540"] ;
362 -> 363 ;
364 [label=<squared_error = 0.016<br/>samples = 166<br/>value = [[1.443]<br/>[0.151]<br/>[0.778]<br/>[-0.652]]>, fillcolor="#e5823b"] ;
363 -> 364 ;
365 [label=<squared_error = 0.016<br/>samples = 152<br/>value = [[1.857]<br/>[0.148]<br/>[0.775]<br/>[-0.644]]>, fillcolor="#e5823b"] ;
363 -> 365 ;
366 [label=<X1 &le; 1.612<br/>squared_error = 0.026<br/>samples = 287<br/>value = [[1.697]<br/>[0.2]<br/>[0.788]<br/>[-0.202]]>, fillcolor="#e6853f"] ;
362 -> 366 ;
367 [label=<squared_error = 0.016<br/>samples = 134<br/>value = [[1.479]<br/>[0.214]<br/>[0.793]<br/>[-0.21]]>, fillcolor="#e5823b"] ;
366 -> 367 ;
368 [label=<squared_error = 0.015<br/>samples = 153<br/>value = [[1.889]<br/>[0.187]<br/>[0.785]<br/>[-0.196]]>, fillcolor="#e5823a"] ;
366 -> 368 ;
369 [label=<X4 &le; -0.476<br/>squared_error = 0.039<br/>samples = 692<br/>value = [[1.663]<br/>[0.64]<br/>[0.78]<br/>[-0.429]]>, fillcolor="#e78945"] ;
361 -> 369 ;
370 [label=<X1 &le; 1.612<br/>squared_error = 0.025<br/>samples = 348<br/>value = [[1.665]<br/>[0.618]<br/>[0.778]<br/>[-0.655]]>, fillcolor="#e6853f"] ;
369 -> 370 ;
371 [label=<squared_error = 0.016<br/>samples = 193<br/>value = [[1.503]<br/>[0.61]<br/>[0.78]<br/>[-0.673]]>, fillcolor="#e5823b"] ;
370 -> 371 ;
372 [label=<squared_error = 0.017<br/>samples = 155<br/>value = [[1.868]<br/>[0.628]<br/>[0.775]<br/>[-0.633]]>, fillcolor="#e5833c"] ;
370 -> 372 ;
373 [label=<X1 &le; 1.617<br/>squared_error = 0.027<br/>samples = 344<br/>value = [[1.66]<br/>[0.661]<br/>[0.782]<br/>[-0.201]]>, fillcolor="#e68540"] ;
369 -> 373 ;
374 [label=<squared_error = 0.016<br/>samples = 190<br/>value = [[1.47]<br/>[0.672]<br/>[0.777]<br/>[-0.207]]>, fillcolor="#e5823b"] ;
373 -> 374 ;
375 [label=<squared_error = 0.015<br/>samples = 154<br/>value = [[1.894]<br/>[0.648]<br/>[0.788]<br/>[-0.195]]>, fillcolor="#e5823b"] ;
373 -> 375 ;
376 [label=<X1 &le; 2.089<br/>squared_error = 0.105<br/>samples = 2509<br/>value = [[1.975]<br/>[1.177]<br/>[0.498]<br/>[-0.523]]>, fillcolor="#ea9b62"] ;
342 -> 376 ;
377 [label=<X3 &le; 0.494<br/>squared_error = 0.057<br/>samples = 1680<br/>value = [[1.667]<br/>[1.165]<br/>[0.525]<br/>[-0.505]]>, fillcolor="#e88e4d"] ;
376 -> 377 ;
378 [label=<X4 &le; -0.518<br/>squared_error = 0.043<br/>samples = 837<br/>value = [[1.642]<br/>[1.165]<br/>[0.299]<br/>[-0.513]]>, fillcolor="#e78a47"] ;
377 -> 378 ;
379 [label=<X1 &le; 1.651<br/>squared_error = 0.031<br/>samples = 392<br/>value = [[1.659]<br/>[1.143]<br/>[0.295]<br/>[-0.751]]>, fillcolor="#e68641"] ;
378 -> 379 ;
380 [label=<X2 &le; 1.223<br/>squared_error = 0.019<br/>samples = 203<br/>value = [[1.451]<br/>[1.143]<br/>[0.286]<br/>[-0.751]]>, fillcolor="#e5833c"] ;
379 -> 380 ;
381 [label=<squared_error = 0.014<br/>samples = 100<br/>value = [[1.438]<br/>[0.987]<br/>[0.297]<br/>[-0.744]]>, fillcolor="#e5823a"] ;
380 -> 381 ;
382 [label=<squared_error = 0.013<br/>samples = 103<br/>value = [[1.463]<br/>[1.294]<br/>[0.276]<br/>[-0.757]]>, fillcolor="#e5813a"] ;
380 -> 382 ;
383 [label=<squared_error = 0.019<br/>samples = 189<br/>value = [[1.882]<br/>[1.144]<br/>[0.304]<br/>[-0.752]]>, fillcolor="#e5833c"] ;
379 -> 383 ;
384 [label=<X1 &le; 1.622<br/>squared_error = 0.031<br/>samples = 445<br/>value = [[1.628]<br/>[1.184]<br/>[0.303]<br/>[-0.303]]>, fillcolor="#e68641"] ;
378 -> 384 ;
385 [label=<X2 &le; 1.251<br/>squared_error = 0.019<br/>samples = 241<br/>value = [[1.436]<br/>[1.19]<br/>[0.313]<br/>[-0.305]]>, fillcolor="#e5833d"] ;
384 -> 385 ;
386 [label=<squared_error = 0.015<br/>samples = 128<br/>value = [[1.419]<br/>[1.052]<br/>[0.323]<br/>[-0.299]]>, fillcolor="#e5823b"] ;
385 -> 386 ;
387 [label=<squared_error = 0.013<br/>samples = 113<br/>value = [[1.455]<br/>[1.347]<br/>[0.301]<br/>[-0.313]]>, fillcolor="#e5813a"] ;
385 -> 387 ;
388 [label=<X2 &le; 1.204<br/>squared_error = 0.02<br/>samples = 204<br/>value = [[1.855]<br/>[1.177]<br/>[0.29]<br/>[-0.3]]>, fillcolor="#e6843d"] ;
384 -> 388 ;
389 [label=<squared_error = 0.015<br/>samples = 102<br/>value = [[1.849]<br/>[1.031]<br/>[0.316]<br/>[-0.287]]>, fillcolor="#e5823b"] ;
388 -> 389 ;
390 [label=<squared_error = 0.015<br/>samples = 102<br/>value = [[1.861]<br/>[1.323]<br/>[0.265]<br/>[-0.312]]>, fillcolor="#e5823a"] ;
388 -> 390 ;
391 [label=<X4 &le; -0.476<br/>squared_error = 0.044<br/>samples = 843<br/>value = [[1.692]<br/>[1.166]<br/>[0.749]<br/>[-0.497]]>, fillcolor="#e78a47"] ;
377 -> 391 ;
392 [label=<X1 &le; 1.622<br/>squared_error = 0.031<br/>samples = 426<br/>value = [[1.707]<br/>[1.146]<br/>[0.745]<br/>[-0.72]]>, fillcolor="#e68742"] ;
391 -> 392 ;
393 [label=<X2 &le; 1.209<br/>squared_error = 0.02<br/>samples = 206<br/>value = [[1.488]<br/>[1.14]<br/>[0.748]<br/>[-0.722]]>, fillcolor="#e5833d"] ;
392 -> 393 ;
394 [label=<squared_error = 0.014<br/>samples = 100<br/>value = [[1.49]<br/>[0.989]<br/>[0.748]<br/>[-0.703]]>, fillcolor="#e5823a"] ;
393 -> 394 ;
395 [label=<squared_error = 0.015<br/>samples = 106<br/>value = [[1.486]<br/>[1.281]<br/>[0.748]<br/>[-0.74]]>, fillcolor="#e5823b"] ;
393 -> 395 ;
396 [label=<X2 &le; 1.227<br/>squared_error = 0.021<br/>samples = 220<br/>value = [[1.913]<br/>[1.152]<br/>[0.743]<br/>[-0.718]]>, fillcolor="#e6843d"] ;
392 -> 396 ;
397 [label=<squared_error = 0.015<br/>samples = 108<br/>value = [[1.921]<br/>[0.999]<br/>[0.75]<br/>[-0.707]]>, fillcolor="#e5823b"] ;
396 -> 397 ;
398 [label=<squared_error = 0.015<br/>samples = 112<br/>value = [[1.905]<br/>[1.299]<br/>[0.736]<br/>[-0.728]]>, fillcolor="#e5823a"] ;
396 -> 398 ;
399 [label=<X1 &le; 1.611<br/>squared_error = 0.031<br/>samples = 417<br/>value = [[1.677]<br/>[1.186]<br/>[0.754]<br/>[-0.269]]>, fillcolor="#e68642"] ;
391 -> 399 ;
400 [label=<X2 &le; 1.22<br/>squared_error = 0.019<br/>samples = 219<br/>value = [[1.473]<br/>[1.191]<br/>[0.753]<br/>[-0.261]]>, fillcolor="#e5833c"] ;
399 -> 400 ;
401 [label=<squared_error = 0.014<br/>samples = 112<br/>value = [[1.473]<br/>[1.051]<br/>[0.756]<br/>[-0.255]]>, fillcolor="#e5823a"] ;
400 -> 401 ;
402 [label=<squared_error = 0.014<br/>samples = 107<br/>value = [[1.472]<br/>[1.338]<br/>[0.75]<br/>[-0.267]]>, fillcolor="#e5823a"] ;
400 -> 402 ;
403 [label=<squared_error = 0.02<br/>samples = 198<br/>value = [[1.903]<br/>[1.179]<br/>[0.755]<br/>[-0.277]]>, fillcolor="#e6833d"] ;
399 -> 403 ;
404 [label=<X1 &le; 2.547<br/>squared_error = 0.056<br/>samples = 829<br/>value = [[2.598]<br/>[1.2]<br/>[0.443]<br/>[-0.559]]>, fillcolor="#e88d4c"] ;
376 -> 404 ;
405 [label=<X4 &le; -0.48<br/>squared_error = 0.043<br/>samples = 413<br/>value = [[2.37]<br/>[1.202]<br/>[0.437]<br/>[-0.556]]>, fillcolor="#e78a47"] ;
404 -> 405 ;
406 [label=<X3 &le; 0.494<br/>squared_error = 0.03<br/>samples = 221<br/>value = [[2.373]<br/>[1.179]<br/>[0.43]<br/>[-0.759]]>, fillcolor="#e68641"] ;
405 -> 406 ;
407 [label=<squared_error = 0.018<br/>samples = 119<br/>value = [[2.348]<br/>[1.187]<br/>[0.237]<br/>[-0.756]]>, fillcolor="#e5833c"] ;
406 -> 407 ;
408 [label=<squared_error = 0.02<br/>samples = 102<br/>value = [[2.403]<br/>[1.17]<br/>[0.655]<br/>[-0.764]]>, fillcolor="#e6843d"] ;
406 -> 408 ;
409 [label=<squared_error = 0.031<br/>samples = 192<br/>value = [[2.367]<br/>[1.229]<br/>[0.444]<br/>[-0.323]]>, fillcolor="#e68642"] ;
405 -> 409 ;
410 [label=<X4 &le; -0.499<br/>squared_error = 0.043<br/>samples = 416<br/>value = [[2.824]<br/>[1.197]<br/>[0.45]<br/>[-0.561]]>, fillcolor="#e78a47"] ;
404 -> 410 ;
411 [label=<X3 &le; 0.516<br/>squared_error = 0.03<br/>samples = 210<br/>value = [[2.828]<br/>[1.169]<br/>[0.456]<br/>[-0.786]]>, fillcolor="#e68641"] ;
410 -> 411 ;
412 [label=<squared_error = 0.017<br/>samples = 106<br/>value = [[2.813]<br/>[1.19]<br/>[0.23]<br/>[-0.798]]>, fillcolor="#e5823b"] ;
411 -> 412 ;
413 [label=<squared_error = 0.018<br/>samples = 104<br/>value = [[2.844]<br/>[1.147]<br/>[0.687]<br/>[-0.773]]>, fillcolor="#e5833c"] ;
411 -> 413 ;
414 [label=<X3 &le; 0.5<br/>squared_error = 0.03<br/>samples = 206<br/>value = [[2.82]<br/>[1.225]<br/>[0.443]<br/>[-0.332]]>, fillcolor="#e68641"] ;
410 -> 414 ;
415 [label=<squared_error = 0.018<br/>samples = 104<br/>value = [[2.8]<br/>[1.216]<br/>[0.237]<br/>[-0.334]]>, fillcolor="#e5833c"] ;
414 -> 415 ;
416 [label=<squared_error = 0.019<br/>samples = 102<br/>value = [[2.84]<br/>[1.234]<br/>[0.653]<br/>[-0.33]]>, fillcolor="#e5833c"] ;
414 -> 416 ;
417 [label=<X3 &le; -0.001<br/>squared_error = 0.175<br/>samples = 9983<br/>value = [[1.762]<br/>[0.889]<br/>[0.094]<br/>[0.402]]>, fillcolor="#eeae80"] ;
273 -> 417 ;
418 [label=<X2 &le; 0.88<br/>squared_error = 0.125<br/>samples = 4942<br/>value = [[1.713]<br/>[0.888]<br/>[-0.353]<br/>[0.395]]>, fillcolor="#eca16b"] ;
417 -> 418 ;
419 [label=<X3 &le; -0.499<br/>squared_error = 0.063<br/>samples = 2371<br/>value = [[1.557]<br/>[0.488]<br/>[-0.327]<br/>[0.433]]>, fillcolor="#e88f50"] ;
418 -> 419 ;
420 [label=<X4 &le; 0.53<br/>squared_error = 0.051<br/>samples = 1178<br/>value = [[1.527]<br/>[0.489]<br/>[-0.553]<br/>[0.438]]>, fillcolor="#e78c4a"] ;
419 -> 420 ;
421 [label=<X2 &le; 0.42<br/>squared_error = 0.039<br/>samples = 615<br/>value = [[1.542]<br/>[0.462]<br/>[-0.554]<br/>[0.226]]>, fillcolor="#e78945"] ;
420 -> 421 ;
422 [label=<X1 &le; 1.578<br/>squared_error = 0.026<br/>samples = 290<br/>value = [[1.532]<br/>[0.231]<br/>[-0.552]<br/>[0.223]]>, fillcolor="#e68540"] ;
421 -> 422 ;
423 [label=<squared_error = 0.016<br/>samples = 137<br/>value = [[1.317]<br/>[0.237]<br/>[-0.545]<br/>[0.212]]>, fillcolor="#e5823b"] ;
422 -> 423 ;
424 [label=<squared_error = 0.016<br/>samples = 153<br/>value = [[1.724]<br/>[0.226]<br/>[-0.558]<br/>[0.232]]>, fillcolor="#e5823b"] ;
422 -> 424 ;
425 [label=<X1 &le; 1.598<br/>squared_error = 0.027<br/>samples = 325<br/>value = [[1.551]<br/>[0.668]<br/>[-0.556]<br/>[0.23]]>, fillcolor="#e68540"] ;
421 -> 425 ;
426 [label=<squared_error = 0.016<br/>samples = 157<br/>value = [[1.338]<br/>[0.678]<br/>[-0.552]<br/>[0.207]]>, fillcolor="#e5823b"] ;
425 -> 426 ;
427 [label=<squared_error = 0.017<br/>samples = 168<br/>value = [[1.75]<br/>[0.658]<br/>[-0.561]<br/>[0.251]]>, fillcolor="#e5833c"] ;
425 -> 427 ;
428 [label=<X2 &le; 0.428<br/>squared_error = 0.037<br/>samples = 563<br/>value = [[1.511]<br/>[0.52]<br/>[-0.552]<br/>[0.669]]>, fillcolor="#e68844"] ;
420 -> 428 ;
429 [label=<X1 &le; 1.568<br/>squared_error = 0.025<br/>samples = 266<br/>value = [[1.525]<br/>[0.29]<br/>[-0.553]<br/>[0.667]]>, fillcolor="#e6853f"] ;
428 -> 429 ;
430 [label=<squared_error = 0.013<br/>samples = 128<br/>value = [[1.314]<br/>[0.289]<br/>[-0.539]<br/>[0.651]]>, fillcolor="#e5823a"] ;
429 -> 430 ;
431 [label=<squared_error = 0.016<br/>samples = 138<br/>value = [[1.721]<br/>[0.29]<br/>[-0.566]<br/>[0.682]]>, fillcolor="#e5823b"] ;
429 -> 431 ;
432 [label=<X1 &le; 1.572<br/>squared_error = 0.026<br/>samples = 297<br/>value = [[1.498]<br/>[0.726]<br/>[-0.552]<br/>[0.671]]>, fillcolor="#e6853f"] ;
428 -> 432 ;
433 [label=<squared_error = 0.015<br/>samples = 162<br/>value = [[1.31]<br/>[0.723]<br/>[-0.558]<br/>[0.666]]>, fillcolor="#e5823b"] ;
432 -> 433 ;
434 [label=<squared_error = 0.015<br/>samples = 135<br/>value = [[1.724]<br/>[0.729]<br/>[-0.544]<br/>[0.678]]>, fillcolor="#e5823b"] ;
432 -> 434 ;
435 [label=<X2 &le; 0.444<br/>squared_error = 0.05<br/>samples = 1193<br/>value = [[1.586]<br/>[0.486]<br/>[-0.103]<br/>[0.428]]>, fillcolor="#e78c4a"] ;
419 -> 435 ;
436 [label=<X4 &le; 0.487<br/>squared_error = 0.038<br/>samples = 591<br/>value = [[1.583]<br/>[0.264]<br/>[-0.106]<br/>[0.419]]>, fillcolor="#e78845"] ;
435 -> 436 ;
437 [label=<X1 &le; 1.59<br/>squared_error = 0.026<br/>samples = 308<br/>value = [[1.593]<br/>[0.253]<br/>[-0.106]<br/>[0.213]]>, fillcolor="#e6853f"] ;
436 -> 437 ;
438 [label=<squared_error = 0.016<br/>samples = 142<br/>value = [[1.372]<br/>[0.266]<br/>[-0.098]<br/>[0.223]]>, fillcolor="#e5823b"] ;
437 -> 438 ;
439 [label=<squared_error = 0.015<br/>samples = 166<br/>value = [[1.782]<br/>[0.242]<br/>[-0.112]<br/>[0.204]]>, fillcolor="#e5823b"] ;
437 -> 439 ;
440 [label=<X1 &le; 1.576<br/>squared_error = 0.027<br/>samples = 283<br/>value = [[1.573]<br/>[0.275]<br/>[-0.107]<br/>[0.644]]>, fillcolor="#e68540"] ;
436 -> 440 ;
441 [label=<squared_error = 0.015<br/>samples = 138<br/>value = [[1.352]<br/>[0.278]<br/>[-0.103]<br/>[0.639]]>, fillcolor="#e5823b"] ;
440 -> 441 ;
442 [label=<squared_error = 0.016<br/>samples = 145<br/>value = [[1.783]<br/>[0.272]<br/>[-0.111]<br/>[0.65]]>, fillcolor="#e5823b"] ;
440 -> 442 ;
443 [label=<X4 &le; 0.509<br/>squared_error = 0.037<br/>samples = 602<br/>value = [[1.589]<br/>[0.705]<br/>[-0.099]<br/>[0.436]]>, fillcolor="#e68844"] ;
435 -> 443 ;
444 [label=<X1 &le; 1.593<br/>squared_error = 0.026<br/>samples = 305<br/>value = [[1.605]<br/>[0.686]<br/>[-0.106]<br/>[0.222]]>, fillcolor="#e6853f"] ;
443 -> 444 ;
445 [label=<squared_error = 0.016<br/>samples = 135<br/>value = [[1.381]<br/>[0.696]<br/>[-0.106]<br/>[0.218]]>, fillcolor="#e5823b"] ;
444 -> 445 ;
446 [label=<squared_error = 0.015<br/>samples = 170<br/>value = [[1.784]<br/>[0.679]<br/>[-0.106]<br/>[0.226]]>, fillcolor="#e5823b"] ;
444 -> 446 ;
447 [label=<X1 &le; 1.55<br/>squared_error = 0.024<br/>samples = 297<br/>value = [[1.573]<br/>[0.723]<br/>[-0.093]<br/>[0.656]]>, fillcolor="#e6853f"] ;
443 -> 447 ;
448 [label=<squared_error = 0.016<br/>samples = 127<br/>value = [[1.354]<br/>[0.711]<br/>[-0.093]<br/>[0.656]]>, fillcolor="#e5823b"] ;
447 -> 448 ;
449 [label=<squared_error = 0.015<br/>samples = 170<br/>value = [[1.736]<br/>[0.733]<br/>[-0.092]<br/>[0.655]]>, fillcolor="#e5823b"] ;
447 -> 449 ;
450 [label=<X1 &le; 2.056<br/>squared_error = 0.1<br/>samples = 2571<br/>value = [[1.857]<br/>[1.258]<br/>[-0.377]<br/>[0.361]]>, fillcolor="#ea9a60"] ;
418 -> 450 ;
451 [label=<X3 &le; -0.496<br/>squared_error = 0.055<br/>samples = 1755<br/>value = [[1.571]<br/>[1.242]<br/>[-0.348]<br/>[0.372]]>, fillcolor="#e88d4c"] ;
450 -> 451 ;
452 [label=<X4 &le; 0.499<br/>squared_error = 0.044<br/>samples = 891<br/>value = [[1.553]<br/>[1.235]<br/>[-0.565]<br/>[0.363]]>, fillcolor="#e78a47"] ;
451 -> 452 ;
453 [label=<X1 &le; 1.608<br/>squared_error = 0.032<br/>samples = 450<br/>value = [[1.554]<br/>[1.216]<br/>[-0.569]<br/>[0.147]]>, fillcolor="#e68742"] ;
452 -> 453 ;
454 [label=<X2 &le; 1.167<br/>squared_error = 0.02<br/>samples = 223<br/>value = [[1.34]<br/>[1.208]<br/>[-0.569]<br/>[0.146]]>, fillcolor="#e6843d"] ;
453 -> 454 ;
455 [label=<squared_error = 0.013<br/>samples = 102<br/>value = [[1.331]<br/>[1.031]<br/>[-0.582]<br/>[0.168]]>, fillcolor="#e5823a"] ;
454 -> 455 ;
456 [label=<squared_error = 0.014<br/>samples = 121<br/>value = [[1.347]<br/>[1.357]<br/>[-0.557]<br/>[0.127]]>, fillcolor="#e5823a"] ;
454 -> 456 ;
457 [label=<X2 &le; 1.194<br/>squared_error = 0.021<br/>samples = 227<br/>value = [[1.763]<br/>[1.225]<br/>[-0.569]<br/>[0.147]]>, fillcolor="#e6843d"] ;
453 -> 457 ;
458 [label=<squared_error = 0.015<br/>samples = 100<br/>value = [[1.759]<br/>[1.054]<br/>[-0.566]<br/>[0.156]]>, fillcolor="#e5823a"] ;
457 -> 458 ;
459 [label=<squared_error = 0.015<br/>samples = 127<br/>value = [[1.767]<br/>[1.359]<br/>[-0.571]<br/>[0.14]]>, fillcolor="#e5823b"] ;
457 -> 459 ;
460 [label=<X1 &le; 1.602<br/>squared_error = 0.032<br/>samples = 441<br/>value = [[1.553]<br/>[1.254]<br/>[-0.561]<br/>[0.584]]>, fillcolor="#e68742"] ;
452 -> 460 ;
461 [label=<X2 &le; 1.179<br/>squared_error = 0.02<br/>samples = 212<br/>value = [[1.337]<br/>[1.244]<br/>[-0.558]<br/>[0.58]]>, fillcolor="#e6843d"] ;
460 -> 461 ;
462 [label=<squared_error = 0.014<br/>samples = 105<br/>value = [[1.331]<br/>[1.084]<br/>[-0.569]<br/>[0.581]]>, fillcolor="#e5823a"] ;
461 -> 462 ;
463 [label=<squared_error = 0.014<br/>samples = 107<br/>value = [[1.342]<br/>[1.402]<br/>[-0.548]<br/>[0.579]]>, fillcolor="#e5823a"] ;
461 -> 463 ;
464 [label=<X2 &le; 1.206<br/>squared_error = 0.021<br/>samples = 229<br/>value = [[1.754]<br/>[1.263]<br/>[-0.563]<br/>[0.589]]>, fillcolor="#e6843d"] ;
460 -> 464 ;
465 [label=<squared_error = 0.014<br/>samples = 114<br/>value = [[1.759]<br/>[1.099]<br/>[-0.546]<br/>[0.603]]>, fillcolor="#e5823a"] ;
464 -> 465 ;
466 [label=<squared_error = 0.014<br/>samples = 115<br/>value = [[1.749]<br/>[1.426]<br/>[-0.579]<br/>[0.574]]>, fillcolor="#e5823a"] ;
464 -> 466 ;
467 [label=<X4 &le; 0.525<br/>squared_error = 0.042<br/>samples = 864<br/>value = [[1.59]<br/>[1.249]<br/>[-0.126]<br/>[0.38]]>, fillcolor="#e78a46"] ;
451 -> 467 ;
468 [label=<X1 &le; 1.608<br/>squared_error = 0.031<br/>samples = 440<br/>value = [[1.603]<br/>[1.229]<br/>[-0.13]<br/>[0.17]]>, fillcolor="#e68742"] ;
467 -> 468 ;
469 [label=<X2 &le; 1.223<br/>squared_error = 0.02<br/>samples = 214<br/>value = [[1.386]<br/>[1.243]<br/>[-0.13]<br/>[0.173]]>, fillcolor="#e6843d"] ;
468 -> 469 ;
470 [label=<squared_error = 0.015<br/>samples = 100<br/>value = [[1.384]<br/>[1.076]<br/>[-0.126]<br/>[0.187]]>, fillcolor="#e5823a"] ;
469 -> 470 ;
471 [label=<squared_error = 0.014<br/>samples = 114<br/>value = [[1.388]<br/>[1.389]<br/>[-0.134]<br/>[0.161]]>, fillcolor="#e5823a"] ;
469 -> 471 ;
472 [label=<X2 &le; 1.192<br/>squared_error = 0.02<br/>samples = 226<br/>value = [[1.808]<br/>[1.216]<br/>[-0.13]<br/>[0.168]]>, fillcolor="#e6833d"] ;
468 -> 472 ;
473 [label=<squared_error = 0.015<br/>samples = 108<br/>value = [[1.806]<br/>[1.058]<br/>[-0.132]<br/>[0.189]]>, fillcolor="#e5823a"] ;
472 -> 473 ;
474 [label=<squared_error = 0.014<br/>samples = 118<br/>value = [[1.811]<br/>[1.36]<br/>[-0.129]<br/>[0.148]]>, fillcolor="#e5823a"] ;
472 -> 474 ;
475 [label=<X1 &le; 1.602<br/>squared_error = 0.03<br/>samples = 424<br/>value = [[1.576]<br/>[1.271]<br/>[-0.121]<br/>[0.598]]>, fillcolor="#e68641"] ;
467 -> 475 ;
476 [label=<X2 &le; 1.204<br/>squared_error = 0.019<br/>samples = 219<br/>value = [[1.382]<br/>[1.277]<br/>[-0.115]<br/>[0.588]]>, fillcolor="#e5833c"] ;
475 -> 476 ;
477 [label=<squared_error = 0.013<br/>samples = 100<br/>value = [[1.377]<br/>[1.106]<br/>[-0.103]<br/>[0.59]]>, fillcolor="#e5823a"] ;
476 -> 477 ;
478 [label=<squared_error = 0.013<br/>samples = 119<br/>value = [[1.387]<br/>[1.42]<br/>[-0.126]<br/>[0.586]]>, fillcolor="#e5823a"] ;
476 -> 478 ;
479 [label=<X2 &le; 1.22<br/>squared_error = 0.02<br/>samples = 205<br/>value = [[1.783]<br/>[1.265]<br/>[-0.126]<br/>[0.609]]>, fillcolor="#e5833d"] ;
475 -> 479 ;
480 [label=<squared_error = 0.013<br/>samples = 100<br/>value = [[1.774]<br/>[1.101]<br/>[-0.126]<br/>[0.62]]>, fillcolor="#e5823a"] ;
479 -> 480 ;
481 [label=<squared_error = 0.013<br/>samples = 105<br/>value = [[1.793]<br/>[1.421]<br/>[-0.127]<br/>[0.598]]>, fillcolor="#e5813a"] ;
479 -> 481 ;
482 [label=<X1 &le; 2.513<br/>squared_error = 0.056<br/>samples = 816<br/>value = [[2.473]<br/>[1.291]<br/>[-0.437]<br/>[0.337]]>, fillcolor="#e88d4c"] ;
450 -> 482 ;
483 [label=<X4 &le; 0.476<br/>squared_error = 0.043<br/>samples = 404<br/>value = [[2.242]<br/>[1.295]<br/>[-0.434]<br/>[0.354]]>, fillcolor="#e78a47"] ;
482 -> 483 ;
484 [label=<squared_error = 0.028<br/>samples = 165<br/>value = [[2.225]<br/>[1.268]<br/>[-0.418]<br/>[0.087]]>, fillcolor="#e68640"] ;
483 -> 484 ;
485 [label=<X3 &le; -0.536<br/>squared_error = 0.031<br/>samples = 239<br/>value = [[2.254]<br/>[1.314]<br/>[-0.445]<br/>[0.539]]>, fillcolor="#e68742"] ;
483 -> 485 ;
486 [label=<squared_error = 0.018<br/>samples = 113<br/>value = [[2.223]<br/>[1.299]<br/>[-0.686]<br/>[0.536]]>, fillcolor="#e5833c"] ;
485 -> 486 ;
487 [label=<squared_error = 0.018<br/>samples = 126<br/>value = [[2.281]<br/>[1.328]<br/>[-0.229]<br/>[0.541]]>, fillcolor="#e5833c"] ;
485 -> 487 ;
488 [label=<X4 &le; 0.497<br/>squared_error = 0.043<br/>samples = 412<br/>value = [[2.699]<br/>[1.287]<br/>[-0.44]<br/>[0.321]]>, fillcolor="#e78a47"] ;
482 -> 488 ;
489 [label=<X3 &le; -0.512<br/>squared_error = 0.03<br/>samples = 207<br/>value = [[2.699]<br/>[1.259]<br/>[-0.44]<br/>[0.102]]>, fillcolor="#e68641"] ;
488 -> 489 ;
490 [label=<squared_error = 0.018<br/>samples = 102<br/>value = [[2.673]<br/>[1.265]<br/>[-0.662]<br/>[0.1]]>, fillcolor="#e5833c"] ;
489 -> 490 ;
491 [label=<squared_error = 0.018<br/>samples = 105<br/>value = [[2.725]<br/>[1.253]<br/>[-0.224]<br/>[0.104]]>, fillcolor="#e5833c"] ;
489 -> 491 ;
492 [label=<X3 &le; -0.511<br/>squared_error = 0.031<br/>samples = 205<br/>value = [[2.698]<br/>[1.315]<br/>[-0.441]<br/>[0.541]]>, fillcolor="#e68641"] ;
488 -> 492 ;
493 [label=<squared_error = 0.018<br/>samples = 105<br/>value = [[2.673]<br/>[1.32]<br/>[-0.653]<br/>[0.523]]>, fillcolor="#e5833c"] ;
492 -> 493 ;
494 [label=<squared_error = 0.02<br/>samples = 100<br/>value = [[2.724]<br/>[1.31]<br/>[-0.218]<br/>[0.561]]>, fillcolor="#e5833d"] ;
492 -> 494 ;
495 [label=<X2 &le; 0.914<br/>squared_error = 0.125<br/>samples = 5041<br/>value = [[1.809]<br/>[0.89]<br/>[0.532]<br/>[0.409]]>, fillcolor="#eca16b"] ;
417 -> 495 ;
496 [label=<X2 &le; 0.466<br/>squared_error = 0.064<br/>samples = 2485<br/>value = [[1.653]<br/>[0.507]<br/>[0.559]<br/>[0.448]]>, fillcolor="#e89050"] ;
495 -> 496 ;
497 [label=<X3 &le; 0.498<br/>squared_error = 0.051<br/>samples = 1245<br/>value = [[1.644]<br/>[0.278]<br/>[0.563]<br/>[0.446]]>, fillcolor="#e78c4b"] ;
496 -> 497 ;
498 [label=<X4 &le; 0.487<br/>squared_error = 0.039<br/>samples = 611<br/>value = [[1.626]<br/>[0.268]<br/>[0.338]<br/>[0.438]]>, fillcolor="#e78945"] ;
497 -> 498 ;
499 [label=<X1 &le; 1.569<br/>squared_error = 0.026<br/>samples = 296<br/>value = [[1.612]<br/>[0.246]<br/>[0.338]<br/>[0.213]]>, fillcolor="#e6853f"] ;
498 -> 499 ;
500 [label=<squared_error = 0.015<br/>samples = 145<br/>value = [[1.403]<br/>[0.238]<br/>[0.336]<br/>[0.214]]>, fillcolor="#e5823b"] ;
499 -> 500 ;
501 [label=<squared_error = 0.016<br/>samples = 151<br/>value = [[1.813]<br/>[0.254]<br/>[0.339]<br/>[0.213]]>, fillcolor="#e5823b"] ;
499 -> 501 ;
502 [label=<X1 &le; 1.598<br/>squared_error = 0.027<br/>samples = 315<br/>value = [[1.638]<br/>[0.289]<br/>[0.338]<br/>[0.649]]>, fillcolor="#e68540"] ;
498 -> 502 ;
503 [label=<squared_error = 0.017<br/>samples = 152<br/>value = [[1.426]<br/>[0.293]<br/>[0.339]<br/>[0.65]]>, fillcolor="#e5823b"] ;
502 -> 503 ;
504 [label=<squared_error = 0.017<br/>samples = 163<br/>value = [[1.835]<br/>[0.285]<br/>[0.338]<br/>[0.647]]>, fillcolor="#e5823b"] ;
502 -> 504 ;
505 [label=<X4 &le; 0.532<br/>squared_error = 0.04<br/>samples = 634<br/>value = [[1.661]<br/>[0.287]<br/>[0.78]<br/>[0.454]]>, fillcolor="#e78945"] ;
497 -> 505 ;
506 [label=<X1 &le; 1.59<br/>squared_error = 0.028<br/>samples = 325<br/>value = [[1.642]<br/>[0.269]<br/>[0.781]<br/>[0.237]]>, fillcolor="#e68640"] ;
505 -> 506 ;
507 [label=<squared_error = 0.017<br/>samples = 177<br/>value = [[1.451]<br/>[0.272]<br/>[0.774]<br/>[0.257]]>, fillcolor="#e5833b"] ;
506 -> 507 ;
508 [label=<squared_error = 0.016<br/>samples = 148<br/>value = [[1.87]<br/>[0.266]<br/>[0.79]<br/>[0.214]]>, fillcolor="#e5823b"] ;
506 -> 508 ;
509 [label=<X1 &le; 1.614<br/>squared_error = 0.027<br/>samples = 309<br/>value = [[1.682]<br/>[0.306]<br/>[0.779]<br/>[0.682]]>, fillcolor="#e68540"] ;
505 -> 509 ;
510 [label=<squared_error = 0.016<br/>samples = 160<br/>value = [[1.484]<br/>[0.3]<br/>[0.788]<br/>[0.676]]>, fillcolor="#e5823b"] ;
509 -> 510 ;
511 [label=<squared_error = 0.016<br/>samples = 149<br/>value = [[1.894]<br/>[0.312]<br/>[0.768]<br/>[0.688]]>, fillcolor="#e5823b"] ;
509 -> 511 ;
512 [label=<X3 &le; 0.477<br/>squared_error = 0.05<br/>samples = 1240<br/>value = [[1.662]<br/>[0.737]<br/>[0.556]<br/>[0.45]]>, fillcolor="#e78c4a"] ;
496 -> 512 ;
513 [label=<X4 &le; 0.492<br/>squared_error = 0.037<br/>samples = 592<br/>value = [[1.636]<br/>[0.737]<br/>[0.324]<br/>[0.44]]>, fillcolor="#e68844"] ;
512 -> 513 ;
514 [label=<X1 &le; 1.598<br/>squared_error = 0.025<br/>samples = 285<br/>value = [[1.648]<br/>[0.712]<br/>[0.324]<br/>[0.217]]>, fillcolor="#e6853f"] ;
513 -> 514 ;
515 [label=<squared_error = 0.015<br/>samples = 129<br/>value = [[1.426]<br/>[0.726]<br/>[0.327]<br/>[0.222]]>, fillcolor="#e5823b"] ;
514 -> 515 ;
516 [label=<squared_error = 0.015<br/>samples = 156<br/>value = [[1.832]<br/>[0.701]<br/>[0.321]<br/>[0.212]]>, fillcolor="#e5823b"] ;
514 -> 516 ;
517 [label=<X1 &le; 1.608<br/>squared_error = 0.025<br/>samples = 307<br/>value = [[1.624]<br/>[0.761]<br/>[0.324]<br/>[0.647]]>, fillcolor="#e6853f"] ;
513 -> 517 ;
518 [label=<squared_error = 0.016<br/>samples = 167<br/>value = [[1.441]<br/>[0.76]<br/>[0.318]<br/>[0.65]]>, fillcolor="#e5823b"] ;
517 -> 518 ;
519 [label=<squared_error = 0.015<br/>samples = 140<br/>value = [[1.842]<br/>[0.762]<br/>[0.332]<br/>[0.643]]>, fillcolor="#e5823a"] ;
517 -> 519 ;
520 [label=<X4 &le; 0.535<br/>squared_error = 0.038<br/>samples = 648<br/>value = [[1.686]<br/>[0.737]<br/>[0.767]<br/>[0.459]]>, fillcolor="#e78844"] ;
512 -> 520 ;
521 [label=<X1 &le; 1.609<br/>squared_error = 0.026<br/>samples = 331<br/>value = [[1.701]<br/>[0.716]<br/>[0.767]<br/>[0.246]]>, fillcolor="#e6853f"] ;
520 -> 521 ;
522 [label=<squared_error = 0.015<br/>samples = 152<br/>value = [[1.489]<br/>[0.713]<br/>[0.765]<br/>[0.25]]>, fillcolor="#e5823b"] ;
521 -> 522 ;
523 [label=<squared_error = 0.017<br/>samples = 179<br/>value = [[1.882]<br/>[0.718]<br/>[0.769]<br/>[0.243]]>, fillcolor="#e5833b"] ;
521 -> 523 ;
524 [label=<X1 &le; 1.592<br/>squared_error = 0.026<br/>samples = 317<br/>value = [[1.67]<br/>[0.76]<br/>[0.767]<br/>[0.68]]>, fillcolor="#e6853f"] ;
520 -> 524 ;
525 [label=<squared_error = 0.015<br/>samples = 160<br/>value = [[1.47]<br/>[0.765]<br/>[0.765]<br/>[0.687]]>, fillcolor="#e5823b"] ;
524 -> 525 ;
526 [label=<squared_error = 0.015<br/>samples = 157<br/>value = [[1.874]<br/>[0.754]<br/>[0.77]<br/>[0.673]]>, fillcolor="#e5823b"] ;
524 -> 526 ;
527 [label=<X1 &le; 2.082<br/>squared_error = 0.101<br/>samples = 2556<br/>value = [[1.962]<br/>[1.262]<br/>[0.505]<br/>[0.371]]>, fillcolor="#ea9a60"] ;
495 -> 527 ;
528 [label=<X3 &le; 0.463<br/>squared_error = 0.056<br/>samples = 1755<br/>value = [[1.674]<br/>[1.249]<br/>[0.529]<br/>[0.383]]>, fillcolor="#e88d4d"] ;
527 -> 528 ;
529 [label=<X4 &le; 0.506<br/>squared_error = 0.043<br/>samples = 826<br/>value = [[1.653]<br/>[1.243]<br/>[0.292]<br/>[0.371]]>, fillcolor="#e78a47"] ;
528 -> 529 ;
530 [label=<X1 &le; 1.609<br/>squared_error = 0.032<br/>samples = 422<br/>value = [[1.652]<br/>[1.219]<br/>[0.287]<br/>[0.157]]>, fillcolor="#e68742"] ;
529 -> 530 ;
531 [label=<squared_error = 0.019<br/>samples = 198<br/>value = [[1.418]<br/>[1.216]<br/>[0.299]<br/>[0.163]]>, fillcolor="#e5833c"] ;
530 -> 531 ;
532 [label=<X2 &le; 1.214<br/>squared_error = 0.02<br/>samples = 224<br/>value = [[1.859]<br/>[1.221]<br/>[0.277]<br/>[0.151]]>, fillcolor="#e5833d"] ;
530 -> 532 ;
533 [label=<squared_error = 0.014<br/>samples = 124<br/>value = [[1.858]<br/>[1.083]<br/>[0.287]<br/>[0.169]]>, fillcolor="#e5823a"] ;
532 -> 533 ;
534 [label=<squared_error = 0.013<br/>samples = 100<br/>value = [[1.86]<br/>[1.393]<br/>[0.265]<br/>[0.129]]>, fillcolor="#e5823a"] ;
532 -> 534 ;
535 [label=<X1 &le; 1.634<br/>squared_error = 0.03<br/>samples = 404<br/>value = [[1.654]<br/>[1.268]<br/>[0.297]<br/>[0.595]]>, fillcolor="#e68641"] ;
529 -> 535 ;
536 [label=<X2 &le; 1.192<br/>squared_error = 0.018<br/>samples = 203<br/>value = [[1.443]<br/>[1.253]<br/>[0.295]<br/>[0.6]]>, fillcolor="#e5833c"] ;
535 -> 536 ;
537 [label=<squared_error = 0.014<br/>samples = 103<br/>value = [[1.45]<br/>[1.123]<br/>[0.296]<br/>[0.623]]>, fillcolor="#e5823a"] ;
536 -> 537 ;
538 [label=<squared_error = 0.014<br/>samples = 100<br/>value = [[1.437]<br/>[1.387]<br/>[0.293]<br/>[0.577]]>, fillcolor="#e5823a"] ;
536 -> 538 ;
539 [label=<X2 &le; 1.238<br/>squared_error = 0.02<br/>samples = 201<br/>value = [[1.866]<br/>[1.284]<br/>[0.298]<br/>[0.59]]>, fillcolor="#e5833d"] ;
535 -> 539 ;
540 [label=<squared_error = 0.014<br/>samples = 100<br/>value = [[1.864]<br/>[1.125]<br/>[0.297]<br/>[0.593]]>, fillcolor="#e5823a"] ;
539 -> 540 ;
541 [label=<squared_error = 0.013<br/>samples = 101<br/>value = [[1.868]<br/>[1.44]<br/>[0.3]<br/>[0.587]]>, fillcolor="#e5823a"] ;
539 -> 541 ;
542 [label=<X4 &le; 0.493<br/>squared_error = 0.044<br/>samples = 929<br/>value = [[1.692]<br/>[1.255]<br/>[0.739]<br/>[0.393]]>, fillcolor="#e78a47"] ;
528 -> 542 ;
543 [label=<X1 &le; 1.606<br/>squared_error = 0.032<br/>samples = 430<br/>value = [[1.684]<br/>[1.234]<br/>[0.74]<br/>[0.157]]>, fillcolor="#e68742"] ;
542 -> 543 ;
544 [label=<X2 &le; 1.232<br/>squared_error = 0.02<br/>samples = 209<br/>value = [[1.463]<br/>[1.247]<br/>[0.742]<br/>[0.164]]>, fillcolor="#e6833d"] ;
543 -> 544 ;
545 [label=<squared_error = 0.015<br/>samples = 100<br/>value = [[1.467]<br/>[1.088]<br/>[0.751]<br/>[0.166]]>, fillcolor="#e5823b"] ;
544 -> 545 ;
546 [label=<squared_error = 0.014<br/>samples = 109<br/>value = [[1.459]<br/>[1.392]<br/>[0.733]<br/>[0.163]]>, fillcolor="#e5823a"] ;
544 -> 546 ;
547 [label=<X2 &le; 1.223<br/>squared_error = 0.021<br/>samples = 221<br/>value = [[1.893]<br/>[1.222]<br/>[0.738]<br/>[0.15]]>, fillcolor="#e6843d"] ;
543 -> 547 ;
548 [label=<squared_error = 0.015<br/>samples = 117<br/>value = [[1.885]<br/>[1.078]<br/>[0.74]<br/>[0.155]]>, fillcolor="#e5823b"] ;
547 -> 548 ;
549 [label=<squared_error = 0.014<br/>samples = 104<br/>value = [[1.902]<br/>[1.385]<br/>[0.736]<br/>[0.143]]>, fillcolor="#e5823a"] ;
547 -> 549 ;
550 [label=<X1 &le; 1.613<br/>squared_error = 0.032<br/>samples = 499<br/>value = [[1.699]<br/>[1.273]<br/>[0.738]<br/>[0.597]]>, fillcolor="#e68742"] ;
542 -> 550 ;
551 [label=<X2 &le; 1.241<br/>squared_error = 0.02<br/>samples = 247<br/>value = [[1.485]<br/>[1.294]<br/>[0.747]<br/>[0.604]]>, fillcolor="#e5833d"] ;
550 -> 551 ;
552 [label=<squared_error = 0.015<br/>samples = 125<br/>value = [[1.488]<br/>[1.145]<br/>[0.741]<br/>[0.602]]>, fillcolor="#e5823b"] ;
551 -> 552 ;
553 [label=<squared_error = 0.014<br/>samples = 122<br/>value = [[1.482]<br/>[1.445]<br/>[0.752]<br/>[0.606]]>, fillcolor="#e5823a"] ;
551 -> 553 ;
554 [label=<X2 &le; 1.21<br/>squared_error = 0.021<br/>samples = 252<br/>value = [[1.909]<br/>[1.253]<br/>[0.731]<br/>[0.589]]>, fillcolor="#e6843d"] ;
550 -> 554 ;
555 [label=<squared_error = 0.016<br/>samples = 139<br/>value = [[1.907]<br/>[1.115]<br/>[0.725]<br/>[0.594]]>, fillcolor="#e5823b"] ;
554 -> 555 ;
556 [label=<squared_error = 0.014<br/>samples = 113<br/>value = [[1.911]<br/>[1.422]<br/>[0.737]<br/>[0.585]]>, fillcolor="#e5823a"] ;
554 -> 556 ;
557 [label=<X3 &le; 0.518<br/>squared_error = 0.054<br/>samples = 801<br/>value = [[2.593]<br/>[1.29]<br/>[0.453]<br/>[0.346]]>, fillcolor="#e78d4c"] ;
527 -> 557 ;
558 [label=<X1 &le; 2.532<br/>squared_error = 0.042<br/>samples = 429<br/>value = [[2.584]<br/>[1.292]<br/>[0.248]<br/>[0.358]]>, fillcolor="#e78a46"] ;
557 -> 558 ;
559 [label=<squared_error = 0.03<br/>samples = 191<br/>value = [[2.337]<br/>[1.279]<br/>[0.259]<br/>[0.344]]>, fillcolor="#e68641"] ;
558 -> 559 ;
560 [label=<X4 &le; 0.526<br/>squared_error = 0.029<br/>samples = 238<br/>value = [[2.782]<br/>[1.302]<br/>[0.24]<br/>[0.37]]>, fillcolor="#e68641"] ;
558 -> 560 ;
561 [label=<squared_error = 0.017<br/>samples = 114<br/>value = [[2.798]<br/>[1.285]<br/>[0.237]<br/>[0.149]]>, fillcolor="#e5833c"] ;
560 -> 561 ;
562 [label=<squared_error = 0.019<br/>samples = 124<br/>value = [[2.768]<br/>[1.318]<br/>[0.243]<br/>[0.574]]>, fillcolor="#e5833c"] ;
560 -> 562 ;
563 [label=<X4 &le; 0.488<br/>squared_error = 0.041<br/>samples = 372<br/>value = [[2.603]<br/>[1.288]<br/>[0.69]<br/>[0.331]]>, fillcolor="#e78946"] ;
557 -> 563 ;
564 [label=<squared_error = 0.029<br/>samples = 188<br/>value = [[2.613]<br/>[1.271]<br/>[0.68]<br/>[0.112]]>, fillcolor="#e68641"] ;
563 -> 564 ;
565 [label=<squared_error = 0.029<br/>samples = 184<br/>value = [[2.594]<br/>[1.304]<br/>[0.7]<br/>[0.555]]>, fillcolor="#e68641"] ;
563 -> 565 ;
566 [label=<X1 &le; 1.849<br/>squared_error = 0.298<br/>samples = 39374<br/>value = [[1.842]<br/>[2.251]<br/>[0.062]<br/>[-0.073]]>, fillcolor="#f5d0b6"] ;
0 -> 566 [labeldistance=2.5, labelangle=-45, headlabel="False"] ;
567 [label=<X3 &le; 0.017<br/>squared_error = 0.227<br/>samples = 19940<br/>value = [[1.283]<br/>[2.174]<br/>[0.099]<br/>[-0.047]]>, fillcolor="#f1bd97"] ;
566 -> 567 ;
568 [label=<X4 &le; -0.02<br/>squared_error = 0.178<br/>samples = 9904<br/>value = [[1.237]<br/>[2.177]<br/>[-0.347]<br/>[-0.055]]>, fillcolor="#efaf82"] ;
567 -> 568 ;
569 [label=<X2 &le; 2.113<br/>squared_error = 0.129<br/>samples = 4900<br/>value = [[1.231]<br/>[2.128]<br/>[-0.351]<br/>[-0.502]]>, fillcolor="#eca26c"] ;
568 -> 569 ;
570 [label=<X1 &le; 0.912<br/>squared_error = 0.104<br/>samples = 2474<br/>value = [[1.076]<br/>[1.745]<br/>[-0.375]<br/>[-0.539]]>, fillcolor="#ea9b62"] ;
569 -> 570 ;
571 [label=<X1 &le; 0.469<br/>squared_error = 0.055<br/>samples = 749<br/>value = [[0.414]<br/>[1.696]<br/>[-0.435]<br/>[-0.567]]>, fillcolor="#e78d4c"] ;
570 -> 571 ;
572 [label=<X3 &le; -0.493<br/>squared_error = 0.04<br/>samples = 382<br/>value = [[0.189]<br/>[1.696]<br/>[-0.429]<br/>[-0.581]]>, fillcolor="#e78946"] ;
571 -> 572 ;
573 [label=<squared_error = 0.027<br/>samples = 192<br/>value = [[0.176]<br/>[1.689]<br/>[-0.644]<br/>[-0.608]]>, fillcolor="#e68540"] ;
572 -> 573 ;
574 [label=<squared_error = 0.03<br/>samples = 190<br/>value = [[0.202]<br/>[1.702]<br/>[-0.211]<br/>[-0.553]]>, fillcolor="#e68641"] ;
572 -> 574 ;
575 [label=<X3 &le; -0.482<br/>squared_error = 0.042<br/>samples = 367<br/>value = [[0.649]<br/>[1.697]<br/>[-0.442]<br/>[-0.553]]>, fillcolor="#e78a46"] ;
571 -> 575 ;
576 [label=<squared_error = 0.029<br/>samples = 194<br/>value = [[0.625]<br/>[1.7]<br/>[-0.656]<br/>[-0.548]]>, fillcolor="#e68641"] ;
575 -> 576 ;
577 [label=<squared_error = 0.029<br/>samples = 173<br/>value = [[0.675]<br/>[1.693]<br/>[-0.201]<br/>[-0.56]]>, fillcolor="#e68641"] ;
575 -> 577 ;
578 [label=<X1 &le; 1.414<br/>squared_error = 0.057<br/>samples = 1725<br/>value = [[1.364]<br/>[1.766]<br/>[-0.349]<br/>[-0.526]]>, fillcolor="#e88e4d"] ;
570 -> 578 ;
579 [label=<X3 &le; -0.482<br/>squared_error = 0.045<br/>samples = 898<br/>value = [[1.149]<br/>[1.77]<br/>[-0.345]<br/>[-0.532]]>, fillcolor="#e78a48"] ;
578 -> 579 ;
580 [label=<X4 &le; -0.492<br/>squared_error = 0.033<br/>samples = 452<br/>value = [[1.129]<br/>[1.77]<br/>[-0.568]<br/>[-0.523]]>, fillcolor="#e68742"] ;
579 -> 580 ;
581 [label=<X2 &le; 1.792<br/>squared_error = 0.021<br/>samples = 224<br/>value = [[1.133]<br/>[1.735]<br/>[-0.559]<br/>[-0.747]]>, fillcolor="#e6843d"] ;
580 -> 581 ;
582 [label=<squared_error = 0.016<br/>samples = 103<br/>value = [[1.096]<br/>[1.578]<br/>[-0.567]<br/>[-0.78]]>, fillcolor="#e5823b"] ;
581 -> 582 ;
583 [label=<squared_error = 0.014<br/>samples = 121<br/>value = [[1.165]<br/>[1.869]<br/>[-0.553]<br/>[-0.719]]>, fillcolor="#e5823a"] ;
581 -> 583 ;
584 [label=<X2 &le; 1.848<br/>squared_error = 0.019<br/>samples = 228<br/>value = [[1.126]<br/>[1.804]<br/>[-0.576]<br/>[-0.303]]>, fillcolor="#e5833c"] ;
580 -> 584 ;
585 [label=<squared_error = 0.014<br/>samples = 113<br/>value = [[1.123]<br/>[1.661]<br/>[-0.58]<br/>[-0.33]]>, fillcolor="#e5823a"] ;
584 -> 585 ;
586 [label=<squared_error = 0.014<br/>samples = 115<br/>value = [[1.129]<br/>[1.944]<br/>[-0.572]<br/>[-0.277]]>, fillcolor="#e5823a"] ;
584 -> 586 ;
587 [label=<X4 &le; -0.488<br/>squared_error = 0.032<br/>samples = 446<br/>value = [[1.168]<br/>[1.77]<br/>[-0.12]<br/>[-0.54]]>, fillcolor="#e68742"] ;
579 -> 587 ;
588 [label=<X2 &le; 1.792<br/>squared_error = 0.021<br/>samples = 245<br/>value = [[1.171]<br/>[1.757]<br/>[-0.117]<br/>[-0.729]]>, fillcolor="#e6843d"] ;
587 -> 588 ;
589 [label=<squared_error = 0.014<br/>samples = 101<br/>value = [[1.143]<br/>[1.573]<br/>[-0.119]<br/>[-0.74]]>, fillcolor="#e5823a"] ;
588 -> 589 ;
590 [label=<squared_error = 0.016<br/>samples = 144<br/>value = [[1.191]<br/>[1.885]<br/>[-0.116]<br/>[-0.722]]>, fillcolor="#e5823b"] ;
588 -> 590 ;
591 [label=<X2 &le; 1.841<br/>squared_error = 0.02<br/>samples = 201<br/>value = [[1.165]<br/>[1.787]<br/>[-0.123]<br/>[-0.31]]>, fillcolor="#e6833d"] ;
587 -> 591 ;
592 [label=<squared_error = 0.015<br/>samples = 101<br/>value = [[1.158]<br/>[1.641]<br/>[-0.15]<br/>[-0.327]]>, fillcolor="#e5823b"] ;
591 -> 592 ;
593 [label=<squared_error = 0.013<br/>samples = 100<br/>value = [[1.172]<br/>[1.934]<br/>[-0.096]<br/>[-0.293]]>, fillcolor="#e5823a"] ;
591 -> 593 ;
594 [label=<X4 &le; -0.513<br/>squared_error = 0.044<br/>samples = 827<br/>value = [[1.597]<br/>[1.761]<br/>[-0.352]<br/>[-0.52]]>, fillcolor="#e78a47"] ;
578 -> 594 ;
595 [label=<X3 &le; -0.51<br/>squared_error = 0.031<br/>samples = 394<br/>value = [[1.598]<br/>[1.732]<br/>[-0.355]<br/>[-0.75]]>, fillcolor="#e68742"] ;
594 -> 595 ;
596 [label=<squared_error = 0.019<br/>samples = 186<br/>value = [[1.588]<br/>[1.74]<br/>[-0.586]<br/>[-0.739]]>, fillcolor="#e5833c"] ;
595 -> 596 ;
597 [label=<X2 &le; 1.798<br/>squared_error = 0.02<br/>samples = 208<br/>value = [[1.608]<br/>[1.725]<br/>[-0.148]<br/>[-0.76]]>, fillcolor="#e5833d"] ;
595 -> 597 ;
598 [label=<squared_error = 0.015<br/>samples = 108<br/>value = [[1.609]<br/>[1.588]<br/>[-0.165]<br/>[-0.766]]>, fillcolor="#e5823a"] ;
597 -> 598 ;
599 [label=<squared_error = 0.015<br/>samples = 100<br/>value = [[1.607]<br/>[1.873]<br/>[-0.13]<br/>[-0.754]]>, fillcolor="#e5823a"] ;
597 -> 599 ;
600 [label=<X3 &le; -0.485<br/>squared_error = 0.032<br/>samples = 433<br/>value = [[1.596]<br/>[1.788]<br/>[-0.35]<br/>[-0.311]]>, fillcolor="#e68742"] ;
594 -> 600 ;
601 [label=<X2 &le; 1.82<br/>squared_error = 0.019<br/>samples = 222<br/>value = [[1.572]<br/>[1.789]<br/>[-0.565]<br/>[-0.306]]>, fillcolor="#e5833c"] ;
600 -> 601 ;
602 [label=<squared_error = 0.014<br/>samples = 104<br/>value = [[1.569]<br/>[1.634]<br/>[-0.581]<br/>[-0.305]]>, fillcolor="#e5823a"] ;
601 -> 602 ;
603 [label=<squared_error = 0.014<br/>samples = 118<br/>value = [[1.574]<br/>[1.926]<br/>[-0.55]<br/>[-0.308]]>, fillcolor="#e5823a"] ;
601 -> 603 ;
604 [label=<X2 &le; 1.822<br/>squared_error = 0.02<br/>samples = 211<br/>value = [[1.621]<br/>[1.787]<br/>[-0.124]<br/>[-0.317]]>, fillcolor="#e5833d"] ;
600 -> 604 ;
605 [label=<squared_error = 0.014<br/>samples = 111<br/>value = [[1.631]<br/>[1.651]<br/>[-0.139]<br/>[-0.331]]>, fillcolor="#e5823a"] ;
604 -> 605 ;
606 [label=<squared_error = 0.015<br/>samples = 100<br/>value = [[1.61]<br/>[1.938]<br/>[-0.108]<br/>[-0.301]]>, fillcolor="#e5823a"] ;
604 -> 606 ;
607 [label=<X3 &le; -0.517<br/>squared_error = 0.065<br/>samples = 2426<br/>value = [[1.39]<br/>[2.519]<br/>[-0.326]<br/>[-0.464]]>, fillcolor="#e89050"] ;
569 -> 607 ;
608 [label=<X2 &le; 2.579<br/>squared_error = 0.051<br/>samples = 1137<br/>value = [[1.36]<br/>[2.516]<br/>[-0.564]<br/>[-0.471]]>, fillcolor="#e78c4a"] ;
607 -> 608 ;
609 [label=<X4 &le; -0.511<br/>squared_error = 0.04<br/>samples = 586<br/>value = [[1.344]<br/>[2.304]<br/>[-0.566]<br/>[-0.465]]>, fillcolor="#e78946"] ;
608 -> 609 ;
610 [label=<X1 &le; 1.428<br/>squared_error = 0.027<br/>samples = 289<br/>value = [[1.339]<br/>[2.284]<br/>[-0.579]<br/>[-0.687]]>, fillcolor="#e68540"] ;
609 -> 610 ;
611 [label=<squared_error = 0.016<br/>samples = 162<br/>value = [[1.155]<br/>[2.3]<br/>[-0.572]<br/>[-0.683]]>, fillcolor="#e5823b"] ;
610 -> 611 ;
612 [label=<squared_error = 0.017<br/>samples = 127<br/>value = [[1.573]<br/>[2.262]<br/>[-0.589]<br/>[-0.693]]>, fillcolor="#e5823b"] ;
610 -> 612 ;
613 [label=<X1 &le; 1.414<br/>squared_error = 0.028<br/>samples = 297<br/>value = [[1.35]<br/>[2.324]<br/>[-0.553]<br/>[-0.248]]>, fillcolor="#e68641"] ;
609 -> 613 ;
614 [label=<squared_error = 0.016<br/>samples = 151<br/>value = [[1.134]<br/>[2.328]<br/>[-0.555]<br/>[-0.241]]>, fillcolor="#e5823b"] ;
613 -> 614 ;
615 [label=<squared_error = 0.017<br/>samples = 146<br/>value = [[1.573]<br/>[2.319]<br/>[-0.551]<br/>[-0.255]]>, fillcolor="#e5823b"] ;
613 -> 615 ;
616 [label=<X4 &le; -0.522<br/>squared_error = 0.038<br/>samples = 551<br/>value = [[1.376]<br/>[2.742]<br/>[-0.562]<br/>[-0.477]]>, fillcolor="#e78845"] ;
608 -> 616 ;
617 [label=<X1 &le; 1.427<br/>squared_error = 0.026<br/>samples = 279<br/>value = [[1.363]<br/>[2.72]<br/>[-0.561]<br/>[-0.692]]>, fillcolor="#e68540"] ;
616 -> 617 ;
618 [label=<squared_error = 0.015<br/>samples = 148<br/>value = [[1.165]<br/>[2.722]<br/>[-0.561]<br/>[-0.681]]>, fillcolor="#e5823b"] ;
617 -> 618 ;
619 [label=<squared_error = 0.015<br/>samples = 131<br/>value = [[1.586]<br/>[2.718]<br/>[-0.56]<br/>[-0.705]]>, fillcolor="#e5823b"] ;
617 -> 619 ;
620 [label=<X1 &le; 1.456<br/>squared_error = 0.026<br/>samples = 272<br/>value = [[1.39]<br/>[2.764]<br/>[-0.563]<br/>[-0.257]]>, fillcolor="#e68540"] ;
616 -> 620 ;
621 [label=<squared_error = 0.015<br/>samples = 140<br/>value = [[1.19]<br/>[2.765]<br/>[-0.557]<br/>[-0.253]]>, fillcolor="#e5823b"] ;
620 -> 621 ;
622 [label=<squared_error = 0.016<br/>samples = 132<br/>value = [[1.602]<br/>[2.762]<br/>[-0.569]<br/>[-0.262]]>, fillcolor="#e5823b"] ;
620 -> 622 ;
623 [label=<X4 &le; -0.509<br/>squared_error = 0.053<br/>samples = 1289<br/>value = [[1.416]<br/>[2.522]<br/>[-0.116]<br/>[-0.458]]>, fillcolor="#e78c4b"] ;
607 -> 623 ;
624 [label=<X1 &le; 1.418<br/>squared_error = 0.04<br/>samples = 618<br/>value = [[1.41]<br/>[2.495]<br/>[-0.119]<br/>[-0.692]]>, fillcolor="#e78946"] ;
623 -> 624 ;
625 [label=<X2 &le; 2.57<br/>squared_error = 0.027<br/>samples = 307<br/>value = [[1.19]<br/>[2.503]<br/>[-0.119]<br/>[-0.682]]>, fillcolor="#e68540"] ;
624 -> 625 ;
626 [label=<squared_error = 0.016<br/>samples = 148<br/>value = [[1.195]<br/>[2.288]<br/>[-0.132]<br/>[-0.684]]>, fillcolor="#e5823b"] ;
625 -> 626 ;
627 [label=<squared_error = 0.016<br/>samples = 159<br/>value = [[1.185]<br/>[2.704]<br/>[-0.107]<br/>[-0.68]]>, fillcolor="#e5823b"] ;
625 -> 627 ;
628 [label=<X2 &le; 2.557<br/>squared_error = 0.029<br/>samples = 311<br/>value = [[1.628]<br/>[2.486]<br/>[-0.119]<br/>[-0.702]]>, fillcolor="#e68641"] ;
624 -> 628 ;
629 [label=<squared_error = 0.016<br/>samples = 155<br/>value = [[1.623]<br/>[2.255]<br/>[-0.097]<br/>[-0.695]]>, fillcolor="#e5823b"] ;
628 -> 629 ;
630 [label=<squared_error = 0.016<br/>samples = 156<br/>value = [[1.633]<br/>[2.715]<br/>[-0.141]<br/>[-0.709]]>, fillcolor="#e5823b"] ;
628 -> 630 ;
631 [label=<X2 &le; 2.564<br/>squared_error = 0.04<br/>samples = 671<br/>value = [[1.421]<br/>[2.547]<br/>[-0.113]<br/>[-0.242]]>, fillcolor="#e78945"] ;
623 -> 631 ;
632 [label=<X1 &le; 1.415<br/>squared_error = 0.028<br/>samples = 330<br/>value = [[1.416]<br/>[2.322]<br/>[-0.107]<br/>[-0.247]]>, fillcolor="#e68640"] ;
631 -> 632 ;
633 [label=<squared_error = 0.017<br/>samples = 157<br/>value = [[1.193]<br/>[2.337]<br/>[-0.106]<br/>[-0.241]]>, fillcolor="#e5833c"] ;
632 -> 633 ;
